{
  "layers":[{"out_depth":3,"out_sx":32,"out_sy":32,"layer_type":"input"},{"sx":5,"sy":5,"stride":1,"in_depth":3,"out_depth":16,"out_sx":32,"out_sy":32,"layer_type":"conv","l1_decay_mul":0,"l2_decay_mul":1,"pad":2,"filters":[{"sx":5,"sy":5,"depth":3,"w":{"0":-0.19515232628075868,"1":-0.07097732739047403,"2":0.10462384612884786,"3":-0.12225812290704687,"4":0.04220050605055282,"5":0.16047937771857168,"6":-0.015683664149628494,"7":0.0013597475197496406,"8":0.01395671954131037,"9":-0.15006218393215748,"10":-0.16728613098798864,"11":0.028936265442763794,"12":0.14805856272582354,"13":-0.1795897664391066,"14":-0.007122098218328083,"15":0.05857889340481557,"16":-0.0664798723747258,"17":0.2150566136864745,"18":-0.09482208494502928,"19":-0.07930365557347141,"20":0.03553524261044934,"21":-0.05236530781480869,"22":-0.17597566901005784,"23":-0.016529668372248785,"24":-0.048284986095902455,"25":-0.057305681468731,"26":0.09111998918278696,"27":0.041937561765985655,"28":0.2277960627269681,"29":0.005914503870147846,"30":0.15233954634562397,"31":-0.07854841170893531,"32":0.24601632034431437,"33":0.13641759164763984,"34":-0.11424814414926598,"35":0.23434074923978654,"36":-0.02830965984630173,"37":0.01962386251631615,"38":0.07548296055997218,"39":-0.0857892582922294,"40":0.03970702544033702,"41":-0.018841692063177505,"42":-0.1613663947068168,"43":0.0941905151949907,"44":0.053057354681996606,"45":-0.06936803992654726,"46":-0.07215941022552931,"47":-0.012513466724181268,"48":-0.21288022415206476,"49":0.02804843319000674,"50":-0.10347744718422605,"51":0.03475983726522436,"52":-0.041026312328423443,"53":0.06767665600090746,"54":0.12670762814030953,"55":0.019115640340888293,"56":0.13984819003974172,"57":-0.18077816396250793,"58":-0.18872493438994686,"59":0.1161405021985752,"60":0.024258985148707526,"61":-0.07107210228677738,"62":0.0806463994475673,"63":-0.017416798829343428,"64":0.24711124667755238,"65":0.039493998564475774,"66":-0.13388456764080986,"67":-0.05810180396542547,"68":0.17347243120300385,"69":-0.02202765899351226,"70":-0.03035480163477103,"71":0.23031040536440858,"72":-0.11806423605572239,"73":0.15851208737831052,"74":0.04974969958080591}},{"sx":5,"sy":5,"depth":3,"w":{"0":0.06482726412635705,"1":0.1347575259338723,"2":0.07380752944536553,"3":0.022208918415917538,"4":0.1303478205164923,"5":-0.07943901135542944,"6":-0.028982827213836663,"7":-0.034042028541023325,"8":-0.03229191406437236,"9":0.015484817297911523,"10":0.09438063079977192,"11":0.0014972426971925673,"12":-0.09961344880962679,"13":0.2775632183211743,"14":-0.12333795842980043,"15":-0.08153454269603845,"16":-0.051688130589628414,"17":-0.07498129950874378,"18":-0.15916746116873073,"19":-0.013077093961018353,"20":-0.20487204374091048,"21":-0.1560829479282518,"22":0.1437348965656335,"23":0.06822590370471009,"24":0.13181790236707028,"25":0.2304119935314043,"26":-0.2610038027140111,"27":0.0729526922858166,"28":0.20400326336661945,"29":-0.05101648507425675,"30":-0.21659157401035126,"31":0.2203634235204089,"32":-0.10082637107703105,"33":0.018490329645239056,"34":0.2799749198279836,"35":0.0015407087153485053,"36":0.042527506403710995,"37":0.020132982521189297,"38":-0.09137560615776663,"39":-0.045392362816969734,"40":0.17794056307604664,"41":-0.027641690759414417,"42":-0.16014502223187158,"43":-0.01348569578127816,"44":-0.11806431484139762,"45":0.0846003497786299,"46":-0.06089468007941166,"47":0.14219264481875446,"48":0.17972761406936197,"49":0.0003781050740577982,"50":0.08615891680772972,"51":-0.01613803245607695,"52":-0.13839758541063724,"53":-0.0237900905545736,"54":-0.013665329855800238,"55":0.12878830337867542,"56":-0.1638591856121692,"57":0.11281512423301018,"58":0.03468891279781703,"59":0.042596965989844804,"60":-0.0989624714812417,"61":-0.048498492316264574,"62":0.010104558837624882,"63":0.05056383653385569,"64":0.21088745990955854,"65":-0.20695259037877892,"66":-0.06358838725516769,"67":0.11648396522034765,"68":-0.23688721045131741,"69":0.1280525127859053,"70":0.009096876803388543,"71":0.03164534912194506,"72":-0.14129476785472056,"73":0.01948734796630513,"74":-0.007853318740323722}},{"sx":5,"sy":5,"depth":3,"w":{"0":0.1246576202900429,"1":0.18813198297245096,"2":-0.20936308043596888,"3":-0.04367049044138934,"4":0.1260298739276739,"5":-0.14233257566480711,"6":-0.11642569227693055,"7":-0.024788024418184777,"8":-0.10280039716736067,"9":-0.06925781877291522,"10":0.04600995893568725,"11":-0.11921586722384755,"12":-0.2555133902041221,"13":0.18230554646101194,"14":-0.05836192575090418,"15":-0.16615792369054827,"16":-0.0009247984315465538,"17":0.096114387499245,"18":0.07519547417138125,"19":0.022525761291130576,"20":0.07594078363689286,"21":-0.0055459101839607505,"22":0.12414432176777711,"23":-0.025511094366792407,"24":0.04150699031647444,"25":-0.01724230273727693,"26":-0.0035281250226971515,"27":0.16122382063288845,"28":0.054549093530875406,"29":-0.20273341736073844,"30":0.08756897344355537,"31":-0.16935249237298136,"32":-0.24850721733360948,"33":-0.11394129542517759,"34":0.23825707922112316,"35":-0.02643219376898508,"36":0.185049756995868,"37":-0.09169331962413622,"38":-0.053169439429967505,"39":0.10554340901997608,"40":0.09413735758145006,"41":-0.1432083468722628,"42":0.12862971216933514,"43":0.3070740825077109,"44":-0.023774075052727113,"45":0.023806590208059523,"46":0.062043733033269044,"47":-0.008186923238663601,"48":0.06840448920011119,"49":0.03623788761936019,"50":-0.18478007356086792,"51":-0.18319460274431446,"52":0.07849869997107198,"53":-0.05870367040989339,"54":0.006447863779350107,"55":0.1725172662009417,"56":-0.025740293272293584,"57":0.013074557920737502,"58":0.03303942701624505,"59":0.05861306301048057,"60":-0.1338132150054716,"61":0.22857445490181474,"62":0.11867987504298498,"63":0.09325391787484626,"64":-0.008375426109252144,"65":-0.09355776563202207,"66":0.08027342490438256,"67":0.04624710625982352,"68":-0.13690489871294123,"69":0.0889832384297762,"70":0.039095433135988976,"71":-0.20282302252794127,"72":0.13923911669646705,"73":0.041107544688938506,"74":-0.11457396771789025}},{"sx":5,"sy":5,"depth":3,"w":{"0":0.04788546658647556,"1":0.09333589013793707,"2":-0.03886952616195031,"3":-0.0771958784403081,"4":-0.06471860769485331,"5":0.20527296817408827,"6":0.1660653497310837,"7":-0.024998466265757333,"8":-0.08389738718802543,"9":-0.07412192470695735,"10":-0.056496409553640284,"11":0.07300600507439534,"12":0.0014926074953376463,"13":-0.06331126226327796,"14":0.21471790654226855,"15":0.11643016807143106,"16":-0.06768712084059944,"17":0.21326874860074752,"18":0.0680138230928172,"19":0.22768414126025005,"20":0.1263957906587519,"21":0.07138585818587839,"22":-0.05095773265188331,"23":0.14620142629334515,"24":-0.09473090586618779,"25":0.1729321936156475,"26":-0.06792838390858498,"27":0.0984258074578159,"28":-0.05168786420732595,"29":0.12160467275169207,"30":0.10021185613796199,"31":-0.17207415657249397,"32":0.0323373166168905,"33":0.04562046775960996,"34":-0.09226504933719246,"35":-0.06571283486345209,"36":-0.04550774320200608,"37":-0.03375639267696591,"38":0.039376311773831614,"39":0.16849350056212395,"40":0.1379223409000185,"41":0.024025573706031072,"42":0.27468918856855973,"43":-0.0650139426207729,"44":-0.27376620566203425,"45":0.044223697918584985,"46":-0.24957343048537367,"47":-0.028197835041662896,"48":0.011759765546958087,"49":0.02463453715198741,"50":-0.00937612388446671,"51":-0.08098191484482786,"52":-0.03854551598466305,"53":0.038092560476527655,"54":-0.07595286373795616,"55":-0.039155790358999916,"56":0.030306076619947313,"57":-0.007324028119400071,"58":-0.15078074040616363,"59":-0.0008368770612900871,"60":0.1203052042365912,"61":-0.10843049190736728,"62":0.10277704733237472,"63":-0.023406319233431682,"64":-0.14802864636098445,"65":0.24806461259018955,"66":0.010865361113603344,"67":-0.12814346506177016,"68":0.10337948770621941,"69":-0.3305636937995043,"70":-0.10346476748510783,"71":0.17762940540541286,"72":0.00997988007873701,"73":-0.09844599735410063,"74":0.07752756310607842}},{"sx":5,"sy":5,"depth":3,"w":{"0":0.04707627943345558,"1":-0.12155219987738557,"2":0.18286782368270327,"3":0.04633770353282684,"4":0.05727933884554827,"5":0.18191295371878066,"6":0.1411968231218529,"7":0.05556593912206288,"8":-0.1116978531368431,"9":-0.023747534687801233,"10":0.03884060130328151,"11":-0.029026812765971764,"12":-0.07697145001140558,"13":-0.20327365023953017,"14":-0.04569769653402517,"15":0.006229899241442684,"16":-0.01672373914760847,"17":-0.1272518247741606,"18":0.12074573852631916,"19":-0.1064241136775189,"20":0.027024235986571193,"21":-0.06293511181328401,"22":0.047948087556525576,"23":-0.12331638736397765,"24":-0.0176956478888222,"25":0.11786587664500066,"26":-0.07995414238924427,"27":-0.0037714472801243662,"28":0.12158716051681226,"29":-0.07166117514824612,"30":0.15111757866717213,"31":-0.04459662832496126,"32":0.06916298703773743,"33":-0.02803224343043369,"34":0.06575089264764374,"35":-0.008953518870693086,"36":0.24937022524271152,"37":-0.14266588312508865,"38":0.060892850043599435,"39":-0.11990939132070476,"40":0.10384729629551592,"41":-0.12640256778454703,"42":0.006884279398559189,"43":-0.1714265975060258,"44":0.11388075418685983,"45":-0.1582330388904124,"46":-0.2450737517282078,"47":-0.06893367852512672,"48":0.06476896350820802,"49":0.10260378351055419,"50":0.05642919629587943,"51":0.014658880835696296,"52":0.052695621502698985,"53":-0.07672817608980358,"54":-0.009240861840000671,"55":0.043010515735960986,"56":0.09676375016028281,"57":-0.07794739310473832,"58":-0.11584693795910267,"59":-0.14346638874963583,"60":-0.17653726399968026,"61":0.24445724648579267,"62":0.039594408025373146,"63":-0.009481087055196897,"64":0.1021908118814475,"65":-0.08947071152395587,"66":0.25682294908013736,"67":0.12959377595915597,"68":0.03163994570119011,"69":-0.09767892281164597,"70":-0.16369988980576622,"71":-0.05533615569581149,"72":-0.07925747049176991,"73":-0.10719416828317699,"74":0.0668429503317813}},{"sx":5,"sy":5,"depth":3,"w":{"0":0.2311677039157205,"1":0.0019233087996338334,"2":-0.016363952314544204,"3":0.4859477663139118,"4":-0.11777970053501349,"5":-0.08108454766553606,"6":0.264615564169651,"7":-0.11216562368290581,"8":0.14837653329991385,"9":0.03215266631001776,"10":-0.06606701694593727,"11":0.039727163625701604,"12":-0.11553571681648178,"13":-0.09041742591245469,"14":0.02179948616364031,"15":-0.025876791836385193,"16":-0.22360702305244365,"17":-0.18465759218716565,"18":-0.006900387447460634,"19":0.11626515834838183,"20":-0.048964545077683407,"21":0.24781645036584993,"22":0.050393770102041116,"23":0.010996265920500172,"24":0.010484079703751776,"25":-0.08205058274926905,"26":-0.15887038050806382,"27":0.27607264756387745,"28":-0.08606094730504245,"29":0.007237565002230475,"30":0.0243417939558083,"31":-0.15801879165363833,"32":-0.15569717722170998,"33":0.06394257261390433,"34":0.005449732407432722,"35":-0.07393095105560965,"36":0.13667149656126434,"37":-0.05051831760904754,"38":0.024590445645950823,"39":0.059128160755213446,"40":0.02882249261974173,"41":-0.004862581492354701,"42":0.10709743918689714,"43":-0.33881697060395133,"44":0.1645806020067431,"45":-0.31496369322608336,"46":-0.13985134955965375,"47":0.07309694271082182,"48":0.3422295758677837,"49":0.15334122121682678,"50":-0.05339050890136987,"51":-0.01476134631543806,"52":-0.19556978929572028,"53":0.005015059449574135,"54":0.023337629934480457,"55":0.04557177808852607,"56":-0.009613085870647617,"57":-0.10024343632203608,"58":0.03372209255933717,"59":0.10480724284912471,"60":0.02665639182916957,"61":-0.10806469266592665,"62":0.1544720088223042,"63":-0.006506209951109843,"64":-0.12778595577375954,"65":0.06588689052772367,"66":0.07762803966327916,"67":-0.09275860591849525,"68":0.1920815206934695,"69":0.11989419355553065,"70":-0.011396275181595408,"71":-0.095822183186761,"72":0.26390878284650754,"73":-0.0972238043883446,"74":0.07717462155919191}},{"sx":5,"sy":5,"depth":3,"w":{"0":-0.07069802653155785,"1":-0.21551399468858803,"2":-0.027506966457898557,"3":-0.22638969377260407,"4":0.06575521035253065,"5":0.07405441386810294,"6":-0.10303040249057498,"7":0.09292508650829255,"8":-0.0764756333752689,"9":-0.1460989333201781,"10":-0.1307207278713787,"11":0.05734154102457345,"12":-0.023588279527031488,"13":-0.1104170029701175,"14":-0.12705885046450305,"15":-0.08114276557570207,"16":0.09515844733882524,"17":0.23490711766270533,"18":0.04044744117924895,"19":-0.06810959080580785,"20":0.18580288305438672,"21":0.04573594997452595,"22":-0.10963614722307766,"23":0.023142540095299233,"24":-0.025088082341340898,"25":0.016098049525097476,"26":0.09390999106665658,"27":0.12293116723893488,"28":-0.12537298164169955,"29":0.17198625038697682,"30":0.19733142497999756,"31":0.09108395191407831,"32":-0.157956812455425,"33":-0.04545723611522634,"34":0.09529339497672294,"35":0.20291932362615678,"36":0.07901835342175417,"37":-0.13962530813358817,"38":0.10311126959351516,"39":0.04847969638118273,"40":0.14483013705396303,"41":0.20290723000986996,"42":0.0782147532630105,"43":0.16827163057456673,"44":-0.13325685758714098,"45":0.061477859402853816,"46":0.1179458300556852,"47":-0.009803426140560817,"48":-0.14220584182754398,"49":0.06221547898291674,"50":0.1050610417467377,"51":0.06013993823307325,"52":0.0038210395513553316,"53":-0.1732705225808775,"54":-0.08150510940381342,"55":0.05381614186786148,"56":0.23672885538464286,"57":0.09521973753697072,"58":-0.008191615832095269,"59":-0.02837588724802107,"60":0.16871509029813428,"61":-0.21505421981587064,"62":-0.1983190530502895,"63":-0.010566614525601358,"64":0.06877652308348199,"65":0.08389079602168216,"66":-0.07625820205784276,"67":0.09793163256105793,"68":0.1433398472534894,"69":0.06144794154069306,"70":-0.009565471167936592,"71":0.07958799201516456,"72":-0.04935190938493273,"73":-0.027703908142402953,"74":0.05302185492387887}},{"sx":5,"sy":5,"depth":3,"w":{"0":0.015554254582529996,"1":0.02054415438854869,"2":-0.03273363535815886,"3":0.042711537494486876,"4":-0.0036169936324943644,"5":-0.09333385409899887,"6":-0.10543759714012148,"7":0.08496132475905809,"8":0.11504518819735621,"9":-0.15214322758428667,"10":-0.03893882360982759,"11":0.07472562719861489,"12":0.16908138587162733,"13":0.1817271761653476,"14":-0.02899771098684872,"15":0.1118219338413216,"16":-0.08760940119717602,"17":-0.02362803835141823,"18":-0.2309654161917016,"19":0.07160988049495827,"20":0.06759502853360716,"21":0.03942617657341265,"22":-0.05242822290737192,"23":0.026428936033697288,"24":-0.0004211809198286239,"25":0.008887105997305628,"26":-0.0376741498906986,"27":0.12595744978239068,"28":0.0725328075887057,"29":-0.10645860397546535,"30":-0.09304707799563736,"31":0.0014946926799829998,"32":-0.11308612787969373,"33":-0.05913375315348957,"34":0.12385232921329907,"35":0.012526996785137978,"36":-0.013412181743192517,"37":0.24691899028577077,"38":0.008908613734127942,"39":0.0030816568348044,"40":0.06859927569262154,"41":-0.17432722397788847,"42":-0.07015694378717262,"43":0.04299352046109579,"44":-0.1470032283244937,"45":0.16623384827811552,"46":0.10041801590095159,"47":-0.008282796137649755,"48":0.08125729233235504,"49":0.1480854114994744,"50":-0.034480345070361795,"51":-0.18194422023791254,"52":0.08729221803165407,"53":0.017655835694650124,"54":-0.2606419676709395,"55":0.0011884384348937551,"56":-0.11033555221997289,"57":-0.003005430841683296,"58":0.02372027007399698,"59":-0.07961859035003375,"60":0.17185817239919257,"61":0.2511871606123387,"62":-0.07021276133528871,"63":0.051574043655229045,"64":0.35261098291904763,"65":-0.054466932505583404,"66":-0.03617468917658931,"67":0.03137437547206367,"68":0.05862871412144308,"69":-0.28897979091078363,"70":-0.1591399921607082,"71":-0.06716137727925041,"72":0.010703930110609534,"73":-0.05394855698356124,"74":-0.15700901869385286}},{"sx":5,"sy":5,"depth":3,"w":{"0":0.01844006352362131,"1":-0.01264914247611549,"2":0.07899822959700763,"3":0.14575686452731376,"4":-0.013211278175061009,"5":0.011486325271521866,"6":0.06818713599149953,"7":-0.051014137586746264,"8":0.09155460037273735,"9":-0.0773023286468777,"10":0.06073219920236888,"11":0.23386440501856073,"12":0.2878592354312068,"13":-0.045271285825560496,"14":-0.008096308881415316,"15":0.07024926997978555,"16":-0.14152912035704046,"17":0.05604305188806991,"18":-0.13019255984850392,"19":0.05236482688711945,"20":-0.04812933786356901,"21":-0.06157873222545955,"22":-0.17546230419494274,"23":0.12647051956001593,"24":0.13353155657207147,"25":0.008085565251168695,"26":0.09673088772616742,"27":0.021470750518607078,"28":-0.14429355983020417,"29":0.024102201818226567,"30":0.2059992992145757,"31":-0.14328729758245973,"32":0.24002657747664463,"33":0.16619163480928634,"34":-0.009237402492378533,"35":0.09030290122006299,"36":0.18248827910515658,"37":0.0035596552216540294,"38":0.016468131801541913,"39":0.15438826373028267,"40":-0.060834639534304354,"41":-0.01621070038923878,"42":0.1262302464089975,"43":-0.07129407820582287,"44":-0.039026182711810006,"45":0.2053474776280286,"46":0.017529473626968446,"47":-0.17418445372064825,"48":0.10251739643181426,"49":-0.09245863326989444,"50":0.06237556826411142,"51":-0.131400739140429,"52":-0.1280188453534541,"53":0.0197396459027673,"54":0.06944600714045035,"55":-0.010535323678652711,"56":0.02346640644179896,"57":-0.10098035765369984,"58":-0.06767052671187242,"59":-0.049201659975338215,"60":0.2685782325447003,"61":-0.17994475662428466,"62":-0.013919930774247124,"63":-0.10147181436526438,"64":-0.06903402214749209,"65":0.11747718030830731,"66":-0.04500566493060447,"67":-0.19562481640420504,"68":-0.03790442269795399,"69":-0.21894070678711083,"70":0.024973938700912097,"71":0.1648603780464318,"72":-0.007744603143421427,"73":-0.08633079319589393,"74":-0.019145780384422374}},{"sx":5,"sy":5,"depth":3,"w":{"0":0.0174849065695633,"1":0.04458859331178889,"2":-0.16156748823115183,"3":-0.0024640080621691155,"4":0.31099198844321274,"5":-0.00035911446463429545,"6":0.0010191132168010128,"7":-0.041765749465040386,"8":-0.08812321237204535,"9":0.11295281863779201,"10":-0.1157552483000821,"11":-0.014270427613350975,"12":0.16476552623101198,"13":-0.02052337589397406,"14":-0.08299239923473418,"15":0.0018737468625220914,"16":-0.06793319106851227,"17":0.21152932717153577,"18":-0.001233346834980175,"19":-0.14129932926598693,"20":0.013328203224230874,"21":-0.01708964722005298,"22":0.14474136591087491,"23":-0.005615917509707087,"24":0.027331012365879585,"25":0.2379607356637994,"26":-0.04901129442039953,"27":-0.00435087626307083,"28":0.030616222319324257,"29":0.06285419592485866,"30":0.10994236397568406,"31":-0.007621893764491392,"32":-0.35891185501427453,"33":-0.09457640628040628,"34":0.08503773850256145,"35":-0.058274298178865314,"36":-0.03327135493919385,"37":0.16999774465159448,"38":-0.002828056580684352,"39":0.009861277242223935,"40":0.005778106757671326,"41":-0.06288616414566611,"42":-0.11255304203999458,"43":-0.09014199514793172,"44":0.12699949168029426,"45":0.05933977779291957,"46":-0.11047049456355733,"47":-0.04035545219741418,"48":0.03937848384154854,"49":-0.027787796191783735,"50":0.12757067118524376,"51":0.2516323845002833,"52":-0.14806980181206025,"53":-0.10964441641651915,"54":-0.1631025652528332,"55":0.013951703970772935,"56":0.037188855683134917,"57":0.060772870581207554,"58":-0.18673038543323273,"59":0.027254529759237783,"60":-0.11728024232798342,"61":-0.04636617066806009,"62":0.15798042662856146,"63":0.10218654973153093,"64":0.03285199807817826,"65":-0.22213771546380712,"66":0.14939544478089123,"67":0.13397138513217535,"68":0.15257279410151134,"69":-0.26489257720654436,"70":-0.06294261333139865,"71":0.03102765221342501,"72":-0.06256812907883438,"73":-0.02610972401405792,"74":-0.10172871657889257}},{"sx":5,"sy":5,"depth":3,"w":{"0":0.006765763128317316,"1":-0.15256014336590717,"2":-0.09197862750197906,"3":-0.009174254030840566,"4":-0.22417565599907066,"5":0.21892994173232294,"6":0.08668820097101633,"7":-0.23467174433019283,"8":-0.08118484083482691,"9":-0.08760462938463373,"10":0.15562126787904595,"11":-0.0637422701350793,"12":-0.13907636799147402,"13":-0.24226440165362342,"14":-0.07403422348666988,"15":-0.12583435300861143,"16":0.029497247571277592,"17":-0.03104338918561652,"18":-0.004840924409421025,"19":0.04275920477388391,"20":0.08477120037039305,"21":-0.2917583279071167,"22":-0.11965488694034435,"23":0.04659716237765642,"24":-0.13449663066072054,"25":-0.1333711579681116,"26":0.07454393959255554,"27":-0.14633446697498206,"28":-0.11861702686505048,"29":0.11773893759415788,"30":-0.07918287945843974,"31":-0.190639372787553,"32":0.033929671174155684,"33":-0.1416941165220449,"34":0.07224755553508828,"35":-0.006572457036792937,"36":0.04870657502266515,"37":-0.01935151488294786,"38":0.16104474777966668,"39":-0.2292369003317892,"40":-0.11757468795651616,"41":-0.09240594943739036,"42":-0.17911029001239184,"43":0.03662627055858884,"44":0.10501468795226655,"45":0.05681372257978694,"46":-0.1701362843027878,"47":0.17424248516356491,"48":0.10602984866976346,"49":0.08020549643799126,"50":0.12089352274745235,"51":-0.08087444301365772,"52":-0.1248648527852494,"53":0.10100562062465086,"54":-0.059300519339162396,"55":-0.11356493120690588,"56":-0.049306992730669214,"57":-0.1548339838334928,"58":0.01777963229835443,"59":0.15092361581505567,"60":-0.0834927863479335,"61":-0.020476973912031304,"62":0.1344621773229075,"63":-0.22519445803109575,"64":0.2672700123012783,"65":0.03808017811929597,"66":-0.06835986758504853,"67":-0.14905152600551225,"68":0.04997949925200266,"69":-0.0648244627070143,"70":0.028402378699825846,"71":-0.0018323620189297455,"72":0.09698219045031932,"73":0.06327209508740422,"74":0.30257910536009497}},{"sx":5,"sy":5,"depth":3,"w":{"0":-0.02512228029771086,"1":-0.0179643115606311,"2":-0.20978205071199518,"3":0.0014681697100102768,"4":0.04985806941251193,"5":0.1969215108054752,"6":-0.09057116725114212,"7":0.06324641531988891,"8":0.04722154022213754,"9":-0.2927717711824802,"10":0.0417430265591568,"11":0.10133410448523067,"12":-0.05857242962886965,"13":0.10056093565908766,"14":-0.007575234144070252,"15":-0.12062738218648783,"16":0.0652778881536511,"17":0.0764583761296359,"18":-0.009745872788977053,"19":-0.1272834434172669,"20":0.14304501092718155,"21":-0.22695254414226743,"22":-0.008823192961473556,"23":0.07286737885785839,"24":-0.1904434696400986,"25":0.08460063409457098,"26":0.1306020371153735,"27":-0.023862010716842876,"28":-0.005728151213361397,"29":0.0801553414620209,"30":-0.09836598122323112,"31":-0.08755671240898112,"32":0.2751656466593599,"33":0.23123488728771185,"34":0.08887961254710539,"35":0.012856683929555867,"36":-0.2358127090320519,"37":-0.042108387736098304,"38":0.20901498070746696,"39":-0.04241737515556141,"40":-0.11408319933597848,"41":-0.017873609565585948,"42":0.07619160845351763,"43":0.049216597284601496,"44":0.07831524722557427,"45":-0.015617560433759042,"46":-0.23006540478224333,"47":0.06109143118167117,"48":-0.026646477752917536,"49":0.016130592853815576,"50":0.07672374160786234,"51":-0.09388471854491132,"52":0.0790382275698531,"53":-0.050431179753713404,"54":-0.012617711175477504,"55":-0.002456414961464228,"56":0.004090061674403463,"57":0.04184256517190538,"58":0.055500005516715786,"59":0.08005711213273418,"60":-0.0351172378181015,"61":-0.11210819803911254,"62":0.08582223520540389,"63":0.030268920962240195,"64":-0.01750983776532084,"65":-0.022036621660416665,"66":-0.0809512138881823,"67":0.1468723448214489,"68":-0.08525778767511137,"69":-0.09408311012351328,"70":-0.07074899640562522,"71":0.11245997436749308,"72":-0.29630007323724067,"73":-0.1313601523284295,"74":0.2658870094819789}},{"sx":5,"sy":5,"depth":3,"w":{"0":0.26937919515042147,"1":-0.10619639700661954,"2":0.1958016082214941,"3":0.16826919008504174,"4":-0.05683676768893969,"5":-0.017433041642856167,"6":0.11160595130363253,"7":0.00782082698465482,"8":-0.08099118678590193,"9":0.004307377883743585,"10":0.12761934299386776,"11":0.0017091757422242732,"12":0.20511692226751832,"13":-0.17512454316548604,"14":-0.1283919114220935,"15":0.1430504485695437,"16":0.009570657931604932,"17":0.06049765306052546,"18":-0.007372764170721993,"19":0.08469073746423501,"20":0.2861187597549665,"21":0.020765215941031867,"22":0.04679564766000701,"23":0.07058800912248228,"24":0.2591958370159103,"25":-0.15536661212066205,"26":0.031181714369251604,"27":-0.03226067880815484,"28":-0.06300062854547658,"29":0.19657239379441843,"30":-0.056170257665197565,"31":0.0188905471492775,"32":0.0766899065346465,"33":-0.13733996974889648,"34":0.017271350062148676,"35":0.18752068549321554,"36":-0.1407834623146619,"37":0.040371647915061586,"38":0.3763178040169725,"39":-0.03865679292172267,"40":0.03679174011239273,"41":0.12225240416542492,"42":0.0017079114097386379,"43":0.134757027715817,"44":0.1954433743359849,"45":-0.15341055117061464,"46":-0.21710064525354764,"47":-0.06939031608762722,"48":0.02296058474383082,"49":-0.08521545789616844,"50":0.1463393550729687,"51":-0.1283849481098549,"52":-0.06662578100640872,"53":-0.10601296501868458,"54":0.1032620691946397,"55":-0.1513413859059042,"56":-0.19281160200460234,"57":-0.021484430343018897,"58":-0.17547593421236246,"59":0.0362877102255988,"60":0.04604538685468287,"61":-0.141815540707792,"62":-0.02305239769150632,"63":-0.019982027768301627,"64":-0.04939792736131585,"65":0.16827337886311072,"66":-0.004523171804613086,"67":-0.024369120876619587,"68":0.01808143979497832,"69":-0.03377566683127888,"70":-0.09112643918009704,"71":0.028561341553816927,"72":0.03973287729472865,"73":-0.16536816914335303,"74":-0.014951120181099979}},{"sx":5,"sy":5,"depth":3,"w":{"0":-0.1326698273107575,"1":-0.06705551655125827,"2":0.2073808325459335,"3":0.20402662188697293,"4":0.032902372593167736,"5":0.001729971994937982,"6":-0.03984968185655881,"7":-0.1795756142500275,"8":0.006756846831239585,"9":-0.09614649325645723,"10":0.09304521133446068,"11":-0.0654549961964227,"12":0.1824908372366319,"13":-0.12970644345582194,"14":-0.11170857034120799,"15":0.05424236460980149,"16":-0.10677871850045115,"17":0.10003388203144296,"18":-0.13925185464065026,"19":-0.10340556090007251,"20":0.13689261172039333,"21":0.02732867080298981,"22":-0.03482943568436937,"23":0.007514912290476215,"24":0.19060167723029314,"25":-0.13005002287509337,"26":0.08306403941202262,"27":-0.008487079599663758,"28":0.10246629108682054,"29":-0.025832387963356476,"30":-0.05925976247868098,"31":0.09658138150813295,"32":-0.10418515600454673,"33":0.16331451041840803,"34":-0.015985370216979704,"35":0.14951507416850404,"36":-0.15075971849564043,"37":-0.09935542385123246,"38":0.03297624482027152,"39":0.1832730900812961,"40":0.0024747459333768324,"41":-0.056049780822385264,"42":-0.15168233217346108,"43":0.07876371362792123,"44":0.002465514989476066,"45":-0.1312488423723537,"46":0.09539554641960298,"47":0.20673603949259647,"48":-0.14120333402733146,"49":-0.008848227296491342,"50":0.04155269151432492,"51":0.0033772628180572853,"52":0.13018254385602818,"53":0.1548658501506351,"54":0.026443868693658123,"55":-0.1465896715590376,"56":0.2939481986904113,"57":-0.0005777606904838126,"58":0.030274995707552807,"59":0.03247471996920675,"60":0.05280475881818257,"61":-0.09929698273392672,"62":0.10873967566139747,"63":0.0439389280200713,"64":0.16105841594333092,"65":0.02175472555771681,"66":-0.06696750033233037,"67":0.02069670236770749,"68":0.021406179096358377,"69":0.01623682435024643,"70":-0.24065663605196852,"71":0.01440685322118355,"72":-0.04901925330917876,"73":0.10735492787568994,"74":0.16474356890745542}},{"sx":5,"sy":5,"depth":3,"w":{"0":-0.008022780178092813,"1":-0.07959997306094609,"2":0.2714460250075448,"3":0.0137031491374517,"4":0.002945106459950757,"5":0.17171104288049574,"6":0.07615959859225116,"7":-0.13264596426301445,"8":0.18924433821545328,"9":0.016551898198923345,"10":-0.08915701272308678,"11":0.14246750644231287,"12":-0.1134505760513714,"13":-0.09006132696958762,"14":0.05338327855754747,"15":0.03477709157294801,"16":-0.04641915426023809,"17":0.05131008792901915,"18":-0.10402344883463548,"19":0.08874139285361762,"20":-0.061856478985804514,"21":-0.08200207773690635,"22":0.0587460153552726,"23":0.13120964445765257,"24":0.1324716220667784,"25":-0.18185466068622375,"26":-0.17283558694473347,"27":0.009915396705678352,"28":0.070983118301665,"29":-0.005104382889576078,"30":0.27390776125422445,"31":0.11979193608798291,"32":0.07683142430140945,"33":-0.054183543312981634,"34":-0.12402013726429506,"35":0.07681593900494453,"36":-0.2542429260051223,"37":-0.002385958852781568,"38":0.11075927237077503,"39":0.05248306459106167,"40":0.15284350050072257,"41":0.05913325141635858,"42":-0.12234133343233364,"43":-0.10794210468484007,"44":0.13761887953462337,"45":-0.07776166301566809,"46":-0.05025312302603225,"47":-0.06345775707309634,"48":-0.06295609751237143,"49":-0.2034604338014315,"50":0.13598821074509362,"51":-0.0280243469926756,"52":0.08721715713292616,"53":0.06584270448975584,"54":-0.03083224545260747,"55":0.0752660798977812,"56":0.27478501352688645,"57":-0.03837679379698182,"58":-0.0844128846096505,"59":0.09434690279829892,"60":-0.04932634367052559,"61":-0.08159152057135906,"62":0.2473863378228063,"63":-0.03024851391072449,"64":-0.04970476255038062,"65":0.06117409869006714,"66":0.0023610396723344196,"67":-0.1880857514437229,"68":0.16913352262571857,"69":-0.25298029332785127,"70":0.033198613995123874,"71":0.10986100388367212,"72":0.013534890631743892,"73":-0.061627709556477735,"74":0.013002164018918374}},{"sx":5,"sy":5,"depth":3,"w":{"0":0.04340087090525322,"1":-0.10800098719118328,"2":-0.012198431497676635,"3":-0.0005358076557899437,"4":-0.1510379474806838,"5":0.04733159062298898,"6":0.0730638381583435,"7":0.19814752465547655,"8":0.07775553374885619,"9":0.00015730691046734677,"10":-0.03615952382292273,"11":0.18390267925165754,"12":-0.08767989651227218,"13":-0.17397566570710307,"14":0.0960075978827927,"15":-0.1792551406476599,"16":0.05605661624593178,"17":0.05596634825351201,"18":-0.14264625766387748,"19":0.04981759687478306,"20":0.18583540753232983,"21":-0.20616970464318696,"22":0.1569159541889632,"23":-0.05488926588396487,"24":-0.22549818660396848,"25":-0.03176542197608788,"26":0.20280003779298758,"27":0.04745310026713783,"28":0.03904359599368235,"29":0.193604173212523,"30":-0.11681494647398796,"31":-0.03754079170016685,"32":0.21090520012397923,"33":-0.09114877826630947,"34":-0.03408989247188488,"35":0.05988983380306959,"36":0.09769248935708734,"37":0.055343607794876196,"38":0.13076186747667617,"39":0.05775583091085569,"40":-0.002944616325550117,"41":-0.13861835996563657,"42":-0.06430037427740329,"43":0.02618614670098983,"44":-0.10384200336964132,"45":-0.08610164066475648,"46":-0.20286250484293722,"47":0.22931053680786667,"48":0.05693043646723326,"49":-0.005814995286186101,"50":-0.033549352471001555,"51":0.03273931693211112,"52":-0.0554097825403508,"53":0.019785212179018043,"54":-0.047439002661669206,"55":-0.08959012480780337,"56":0.08241752627649139,"57":0.0069682661070894535,"58":0.22787837477467576,"59":0.17070635154828112,"60":0.027536580978312918,"61":0.06571172146899454,"62":0.07325701539386698,"63":0.011573392220296635,"64":-0.15099275412300872,"65":-0.028853010269529793,"66":0.03741476986645863,"67":0.0026106928043485287,"68":0.3368645553184741,"69":-0.09813437984113653,"70":-0.05951446036677634,"71":-0.08854571425134507,"72":-0.0029247828774097463,"73":-0.006832912538413777,"74":0.08503603320924111}}],"biases":{"sx":1,"sy":1,"depth":16,"w":{"0":0.0339316717997949,"1":0.09827760253840345,"2":0.11430692275250941,"3":-0.020936145439458834,"4":-0.021107881727889213,"5":-0.011091804676490857,"6":-0.02252773151575482,"7":0.05827692793472747,"8":-0.01829006459627823,"9":0.0001534444457579467,"10":-0.008832085879424719,"11":0.018903731829417833,"12":-0.035547153195336675,"13":-0.016216273131456897,"14":0.07071361573595339,"15":0.07433778770418545}}},{"out_depth":16,"out_sx":32,"out_sy":32,"layer_type":"relu"},{"sx":2,"sy":2,"stride":2,"in_depth":16,"out_depth":16,"out_sx":16,"out_sy":16,"layer_type":"pool","pad":0},{"sx":5,"sy":5,"stride":1,"in_depth":16,"out_depth":20,"out_sx":16,"out_sy":16,"layer_type":"conv","l1_decay_mul":0,"l2_decay_mul":1,"pad":2,"filters":[{"sx":5,"sy":5,"depth":16,"w":{"0":0.008725981169036525,"1":-0.13072618845398662,"2":-0.05565508049130147,"3":0.05188513561692877,"4":-0.06474775581391501,"5":-0.16197376124722343,"6":-0.003297980759643802,"7":0.13391129370967253,"8":-0.002731194801374826,"9":-0.005681456357967527,"10":0.07696605876056001,"11":0.007005876860944275,"12":-0.015155349571830215,"13":-0.02776911301629718,"14":0.06884830730382001,"15":0.07724242152661198,"16":-0.010965951195746261,"17":-0.06584327793754993,"18":-0.12177879051782041,"19":0.02576096171653524,"20":-0.17418136275563104,"21":-0.004596304145882442,"22":-0.008103845984166873,"23":0.09338173961944204,"24":-0.06683129610669718,"25":-0.01779325002072999,"26":-0.02499512883997464,"27":0.01968116343413162,"28":-0.01289536020772703,"29":0.01507924338942513,"30":-0.019141168735483452,"31":-0.035767261745554196,"32":-0.00352042804541209,"33":-0.09023617293834627,"34":-0.04436143636894866,"35":0.005026903455179631,"36":-0.01001075058753004,"37":0.015913849141516084,"38":0.0037457206495605595,"39":-0.13893789028634623,"40":-0.009295579436327452,"41":0.00482456137316692,"42":0.08876015018166478,"43":0.09549332619533936,"44":-0.04338859485425023,"45":0.05018313521470047,"46":0.005323855358286106,"47":-0.009530578927347592,"48":0.034144092150070554,"49":-0.09342435669264543,"50":-0.10048577891761508,"51":0.017645070909574977,"52":-0.1437565687711996,"53":0.0452208088731131,"54":-0.028713582759212316,"55":-0.09731577261824151,"56":0.049695802096090695,"57":-0.20368509008970875,"58":-0.02993506951395783,"59":0.0720418457342948,"60":-0.021068204382075136,"61":0.027092179106005844,"62":0.11684706556469522,"63":0.016005525003204762,"64":0.07790830711600326,"65":-0.0904399896342473,"66":-0.060751223128670345,"67":-0.0039901721642690065,"68":-0.05790170560886753,"69":-0.08195301326307596,"70":0.0018489511085538744,"71":-0.08117606914186842,"72":-0.03139212087810401,"73":-0.05471626705638055,"74":0.011076031217645362,"75":0.06422208385716488,"76":0.0432410367014586,"77":0.047228644603894705,"78":0.014201001014167117,"79":0.04496445681560511,"80":0.10192386544547805,"81":-0.11833212937846256,"82":-0.07156130184774973,"83":0.05662514712826036,"84":-0.08987788306778076,"85":-0.10525292941886853,"86":-0.04221347183610022,"87":-0.10211307823594372,"88":-0.02619977968676269,"89":-0.05551438956539622,"90":-0.03485310836588229,"91":-0.03312964481260675,"92":-0.0828706269657472,"93":-0.038459471054395594,"94":0.0792251852655419,"95":-0.049846425597795625,"96":0.01282083099853924,"97":-0.050322711013332064,"98":-0.185414756118007,"99":-0.012381651730950915,"100":-0.06791883406263537,"101":-0.15858327142699083,"102":-0.019795932876815647,"103":-0.01277922786988566,"104":-0.04765866997920042,"105":-0.00909226228724294,"106":-0.05604602116029123,"107":0.028867909379609744,"108":0.08000362539319056,"109":0.004108716583627874,"110":0.014868588657752334,"111":0.010778490867764525,"112":0.11040399460649568,"113":-0.11001059970716848,"114":-0.11221157102940336,"115":-0.0024905460447945844,"116":-0.11856165095623132,"117":-0.09413871233384753,"118":0.030079403697448694,"119":-0.07439521357750573,"120":0.012854070172923112,"121":-0.0922647780135758,"122":0.009516662993947695,"123":0.008332503939243001,"124":0.06466134103681309,"125":0.038968702799792025,"126":0.03617072287404899,"127":0.06450262714657468,"128":-0.040428331559526756,"129":0.007484897216768594,"130":-0.030578165594049005,"131":0.058318926911733335,"132":-0.03309476854111025,"133":-0.06546305622831881,"134":-0.0011012136106685437,"135":-0.1172118538803181,"136":0.04097399919948041,"137":-0.07342216336531524,"138":0.013837105706586797,"139":0.01360062976450085,"140":-0.07809308061762202,"141":-0.11481146587491028,"142":0.021692422014719336,"143":0.015712688917653542,"144":0.08874683133964524,"145":-0.02183059401475866,"146":-0.09478687168827442,"147":-0.0786207772777758,"148":-0.06608523764915697,"149":-0.058676569527270246,"150":0.04563354979126983,"151":-0.12383907164531247,"152":0.08722962939117496,"153":-0.029459440022376472,"154":-0.06560038021574556,"155":0.11394363378608201,"156":0.06601501117029969,"157":0.016502498492222135,"158":0.07270286438462033,"159":0.09943620930462821,"160":-0.03827832965228592,"161":-0.07129247422532456,"162":-0.1682880512055971,"163":-0.04088510987873843,"164":-0.05218077214403188,"165":-0.12261004649379145,"166":0.02572639565388693,"167":-0.02682705660509803,"168":-0.0007397112216242425,"169":-0.07168566950438536,"170":0.03136188340496896,"171":0.06423393586256365,"172":-0.015294777263432948,"173":-0.09092562734730752,"174":0.02229592622404552,"175":-0.06608610148286219,"176":0.08891475336554247,"177":-0.09156348189638924,"178":-0.08150134252138899,"179":-0.08636122489275933,"180":-0.03796394918307438,"181":-0.08396719705143847,"182":-0.05542645715493601,"183":0.008415960368503058,"184":-0.04564220157250412,"185":-0.016670689093226318,"186":-0.05138833107182216,"187":0.025758599469753844,"188":0.02495663795555661,"189":-0.06054205016348978,"190":0.004610262399656709,"191":0.09310818259709244,"192":0.02863936630832894,"193":-0.05292732334556354,"194":-0.16519106239489184,"195":0.026542652254346495,"196":-0.16133684493737274,"197":-0.06661572325093182,"198":-0.10061328666618925,"199":-0.02660178258286918,"200":-0.07749118895045103,"201":-0.06587460603938242,"202":-0.01813625344696642,"203":0.009859218006513884,"204":-0.060506054369492114,"205":-0.028526913291031793,"206":0.1150593442031741,"207":0.14048077524487154,"208":0.021023671882382085,"209":-0.10636212581866347,"210":-0.028091668122123402,"211":-0.030729228378363994,"212":-0.0551157941492711,"213":-0.07449157211894519,"214":-0.0004956242274718088,"215":0.01222783841631864,"216":0.03247695879173231,"217":-0.01783702185608269,"218":-0.05622657282976372,"219":0.028497638903852734,"220":0.003852124514439826,"221":-0.019922234254394655,"222":0.010956099714266414,"223":0.01846934876122837,"224":-0.024235107737456813,"225":-0.05809320731583016,"226":-0.11182183081816778,"227":0.00746758440646686,"228":0.004769418944462429,"229":-0.12431974309133248,"230":0.04794059527082068,"231":-0.05335875997952084,"232":-0.02778471051995998,"233":-0.0260077343024594,"234":0.004634368788816041,"235":0.03532015421877669,"236":0.009867502841399995,"237":0.02809413301773587,"238":-0.0025997889158048616,"239":0.10204295800850538,"240":0.04300464349291051,"241":-0.1266457887566306,"242":0.009463767212593831,"243":0.011187484389817558,"244":0.04901242247676482,"245":0.003967550645620795,"246":-0.00884832806720226,"247":0.034996138530737034,"248":-0.007826849299752817,"249":0.013240474408614235,"250":0.02561310456290617,"251":-0.014538286960953117,"252":0.06530083174208864,"253":0.007614452063651552,"254":0.1024555390042906,"255":0.06512023884759299,"256":0.041439290474491984,"257":-0.07364321256771068,"258":0.007491788379471286,"259":0.00019936021291211154,"260":-0.042954302851607076,"261":-0.08732642421143336,"262":-0.03237539560835158,"263":-0.023928044656269715,"264":0.04324342505244172,"265":-0.03691986506878409,"266":-0.05104938046981057,"267":-0.013119538357021785,"268":0.015724889726762156,"269":0.02452803536745201,"270":-0.03054826720562044,"271":0.014432522410385906,"272":-0.06588135518701575,"273":0.05630289365554645,"274":-0.014429858398384336,"275":-0.00012678085804139396,"276":0.009942184879545585,"277":-0.02354428056030872,"278":-0.030779590284988653,"279":-0.031574211934068105,"280":-0.11532245601323127,"281":-0.10518912658049381,"282":0.007013885005498226,"283":0.0481629296928495,"284":0.012599017253158254,"285":0.05289901301520145,"286":0.04347512244574598,"287":0.031264246980373105,"288":0.03434443054779398,"289":0.04479750209667479,"290":-0.08576109225765437,"291":-0.06919803839086781,"292":0.03775129391410811,"293":0.002570962250085097,"294":0.03600786881075177,"295":0.008395744890585902,"296":-0.06249770311392319,"297":-0.037661664499415555,"298":-0.017311837762705628,"299":-0.07339008249572035,"300":-0.06354445923336839,"301":0.00783108126833699,"302":-0.023164325917482336,"303":0.008812050166113063,"304":0.1012778238530513,"305":-0.10225977435411225,"306":-0.08709806027679612,"307":-0.12195525403733712,"308":-0.12546288747035197,"309":-0.06834663678316165,"310":0.07629456526922615,"311":-0.0038471079964024326,"312":0.005781901135477969,"313":-0.05063651825860221,"314":-0.002396480748540846,"315":-0.06433220362178674,"316":-0.03267643002563231,"317":0.0029739746185452453,"318":-0.018808886557502506,"319":0.005203585635407036,"320":0.022224329878364417,"321":-0.029675111137715187,"322":-0.10056555782657171,"323":0.03214175848846202,"324":-0.037394327651951276,"325":0.029716877392378563,"326":0.05298356316439434,"327":0.009781136877359707,"328":0.027430774361290853,"329":0.020080217375820757,"330":-0.0044531763442323385,"331":0.020998772343057817,"332":0.005976054952950595,"333":-0.04409422737692393,"334":-0.046260353961989506,"335":-0.03280221517982213,"336":0.11655309369461599,"337":-0.09773314492569986,"338":-0.007176132044365218,"339":0.009208526258082217,"340":-0.08426614200379118,"341":-0.06488858786967597,"342":-0.02283295181777176,"343":-0.04873424193781013,"344":-0.06096061111413724,"345":-0.12591476110706695,"346":-0.03809575073302123,"347":0.04566722265846924,"348":-0.0036796289082371646,"349":0.04336227237119952,"350":-0.01755919151863409,"351":0.07731144224725305,"352":0.003969198812964893,"353":0.01304662959933163,"354":-0.007048631508087683,"355":0.0238443474308007,"356":-0.1378824934846789,"357":0.00040151455364735404,"358":-0.026051782395308837,"359":-0.029493423539088893,"360":-0.010589236291449932,"361":-0.01459616489799953,"362":-0.009695636562436872,"363":-0.04334266638592396,"364":-0.029071693609160117,"365":-0.055349497559393404,"366":0.03162207302492878,"367":-0.0014947735604895593,"368":0.022881491043603305,"369":0.024291362733075875,"370":0.03419356194288018,"371":0.005311207998464596,"372":-0.022573029276261543,"373":-0.05673473274655209,"374":0.09216249526291383,"375":-0.09189306992718604,"376":0.011522312439723185,"377":-0.028747850044951805,"378":0.010206456869912001,"379":-0.01615731035802427,"380":0.007768600098044387,"381":-0.006267649390769836,"382":-0.017331518493603117,"383":0.020618010405772005,"384":0.014432544104650903,"385":0.02622086765706365,"386":-0.051295783229177085,"387":0.0042803665186541655,"388":0.026257232166651653,"389":-0.07473165640641996,"390":-0.023925533790671593,"391":-0.009571337347982774,"392":0.050609841145241384,"393":0.020884271521585188,"394":-0.024980402830975648,"395":0.0025374572874674772,"396":0.035191401575917776,"397":0.014522475489652355,"398":-0.0502062737378982,"399":0.01132279724672875}},{"sx":5,"sy":5,"depth":16,"w":{"0":0.023861293970580427,"1":-0.027318617406495892,"2":0.03149144990604388,"3":-0.03160195834502374,"4":-0.11976960091453315,"5":-0.004061081201353704,"6":-0.07542683188844004,"7":-0.05909370955371858,"8":-0.017469061837769348,"9":-0.01208350220908156,"10":-0.1134558917878849,"11":-0.003596579533212815,"12":0.019104328599945604,"13":-0.059630186369887414,"14":-0.02861189070594712,"15":-0.12391880421961281,"16":0.022443527728007947,"17":0.07721906671853888,"18":0.020326395827099435,"19":-0.055830043537488175,"20":-0.04896778884362206,"21":-0.005260712901396264,"22":-0.0014846773819515364,"23":-0.12375663206650946,"24":-0.016785596704262794,"25":-0.06013030661542544,"26":-0.0016308088822431374,"27":-0.005482030221108078,"28":0.043826557581942746,"29":-0.008007293651987917,"30":-0.10278579729521856,"31":-0.0193536639924681,"32":-0.041301890809065406,"33":0.017882974015933407,"34":-0.05104536947346215,"35":-0.012365285985822351,"36":0.0074452537135924575,"37":-0.028725700785730994,"38":-0.10545837561820752,"39":-0.10112963268660667,"40":-0.04522220149283875,"41":0.017108035829305132,"42":0.03459953588571709,"43":-0.02508542404459279,"44":-0.141776862686039,"45":-0.04045036137026939,"46":-0.05977553610774261,"47":-0.04702400387246087,"48":-0.053942683037212856,"49":-0.11151482465097744,"50":-0.07361593005317692,"51":-0.029271790082724687,"52":-0.01216919875833804,"53":0.07519433133072555,"54":-0.17244365956857954,"55":-0.09365835573173006,"56":-0.0791876333321108,"57":-0.05636934787240085,"58":-0.01536782226621175,"59":-0.06816113500362012,"60":-0.0687623798559818,"61":0.1106994027269162,"62":-0.03904117514635804,"63":-0.04702986899332707,"64":-0.1229131378063368,"65":-0.054798596039647283,"66":-0.13764942035928537,"67":-0.08957638559481926,"68":-0.07575468704605434,"69":-0.02050448645296585,"70":-0.10458515364757386,"71":-0.033363365839713756,"72":0.025721947909539578,"73":-0.10412670783240215,"74":0.019604197871527177,"75":-0.07002404620965141,"76":0.036258027006972816,"77":-0.07820160831382542,"78":-0.002500120817063461,"79":0.03852656184138472,"80":-0.0015249285209921323,"81":0.022719270289586042,"82":-0.02150373380827684,"83":0.03475734574488187,"84":-0.0786238819864191,"85":-0.033869949802130137,"86":-0.01604232267610804,"87":0.0005776840444121381,"88":-0.12720690532741027,"89":-0.04144257728217168,"90":0.09348297256419864,"91":-0.09164041437416445,"92":-0.04300563278537637,"93":0.027185158876760755,"94":-0.10179426090650343,"95":-0.13057767864495987,"96":0.026412271648622275,"97":0.0031302688951427246,"98":0.08012113150387819,"99":0.06018946875201906,"100":-0.06326832406217621,"101":0.013389803045203649,"102":-0.08042846626095244,"103":0.09539444118625572,"104":-0.013120846593130463,"105":-0.07926290193074707,"106":-0.015048427770169164,"107":-0.031465295881741275,"108":-0.02265930398522393,"109":-0.05138262517748923,"110":-0.057534397222444925,"111":0.025766824262170116,"112":0.0426903563053082,"113":-0.00826096550404538,"114":-0.008977991836269928,"115":-0.08262845223569869,"116":-0.026836646575178986,"117":-0.09698329382424375,"118":-0.020990768489586333,"119":0.10119014381481446,"120":0.052729789042711146,"121":-0.0036698663542681816,"122":-0.023945646189033585,"123":-0.052707664115617926,"124":-0.050128811068296426,"125":-0.07930758137723541,"126":-0.04500424901843567,"127":-0.05130187242108239,"128":0.008363808359551281,"129":-0.000055575563187101754,"130":0.10193139389716308,"131":0.14567069915262887,"132":0.10670171387294151,"133":0.024901285130294853,"134":-0.013473592883946107,"135":0.10140155696731573,"136":-0.04273935474088948,"137":0.029877604501175988,"138":0.055158290301683864,"139":-0.07437523755179491,"140":-0.07882211244180035,"141":-0.10516151468363023,"142":-0.0925769414829903,"143":-0.12360836512590755,"144":0.038565207178868285,"145":-0.06789743749253586,"146":-0.1362892131062426,"147":-0.022531256440941005,"148":0.059924159866520964,"149":0.03096618330660384,"150":-0.02578693966246249,"151":0.04789076435177246,"152":0.007436090181156725,"153":0.021919118721881247,"154":0.012807578151925115,"155":0.01296977358539277,"156":-0.0228712425928042,"157":0.03550621984037187,"158":-0.1193114223088951,"159":0.012985451817748926,"160":-0.04128359686952493,"161":-0.008339935885904157,"162":-0.0038202342144860995,"163":-0.00025821584984588703,"164":0.028569269365065004,"165":0.02660892599242194,"166":-0.057723981968212774,"167":0.010250001271721569,"168":-0.032826687041574945,"169":0.00933677051116528,"170":-0.10559878511882134,"171":-0.04023185261664315,"172":0.04683354601459955,"173":-0.08790257411524725,"174":-0.09390178745256177,"175":-0.011499397610368969,"176":-0.13235803272384453,"177":-0.0034215363336510853,"178":-0.03938258240490976,"179":-0.08077481856352851,"180":-0.03785268547762108,"181":-0.0029088906303838527,"182":-0.046837341131396266,"183":0.042666959769228505,"184":-0.002938090620577442,"185":0.04779617615500427,"186":-0.04607460574068469,"187":-0.05183481632440341,"188":0.029130873828169045,"189":-0.055634836064277174,"190":-0.04186035235798369,"191":-0.1179061584725186,"192":0.044046185894683655,"193":0.057182053263430684,"194":-0.013384411597398145,"195":0.06461469728488901,"196":0.03480529199063831,"197":-0.0009697574702205066,"198":-0.04481392620679024,"199":0.10348727475527371,"200":0.026784869951421958,"201":0.05222407344066185,"202":0.005698608860651704,"203":0.024459893340744582,"204":-0.08380601205086737,"205":0.026926182932025245,"206":0.034610072390261856,"207":-0.12971886394121154,"208":-0.038544236515514474,"209":0.07926648653888273,"210":0.06324577972119216,"211":-0.010709362458940335,"212":0.05437875397592725,"213":-0.0039815647873668765,"214":-0.06584515138211039,"215":0.11555617521002277,"216":0.06469643474584538,"217":-0.06261916312388219,"218":0.006935108575287055,"219":-0.011050419312000103,"220":0.07530267300681776,"221":-0.06782337061745027,"222":-0.13413446705340853,"223":-0.0015826385329347277,"224":-0.004470637112414531,"225":0.009199261140555968,"226":-0.10050923448430812,"227":0.03953465853580966,"228":0.00592248493971982,"229":-0.05696528986725123,"230":0.059175959391762074,"231":-0.003368794654549706,"232":-0.011438565079678298,"233":-0.007632376713710428,"234":0.014927758000282827,"235":0.009160299835334815,"236":-0.06136077311598787,"237":-0.08040788333528073,"238":0.01680105302374215,"239":-0.09387304896707133,"240":-0.1139607769782409,"241":0.013924936975945032,"242":-0.09241165211245941,"243":0.0589228338471665,"244":-0.05622546356618689,"245":-0.06067713238278171,"246":-0.13664447494605994,"247":0.06794003127536298,"248":-0.12189430654152336,"249":0.0007734463732651031,"250":-0.02845796104475746,"251":0.06533396040556254,"252":-0.010487761680605856,"253":-0.06058700652115297,"254":0.0071366757806180245,"255":-0.06555876675881442,"256":0.019625629787732638,"257":0.08278100910143767,"258":0.01933137419405935,"259":-0.00024946384164856335,"260":-0.030203330786459422,"261":-0.022457975546937566,"262":-0.03734948432785807,"263":0.03254399190439837,"264":-0.0349558277484975,"265":-0.014192708083949077,"266":-0.05663881476394415,"267":-0.05661630294423568,"268":-0.02034479503625193,"269":-0.0706795653849321,"270":-0.017349971618505166,"271":-0.030331093292546855,"272":-0.10093597620323118,"273":0.028127155912534632,"274":-0.015216963138466828,"275":-0.027951587844171746,"276":0.04904074469339442,"277":-0.04218864239335184,"278":-0.032683355920252545,"279":0.0655164475941524,"280":-0.06151874231879354,"281":0.0141996926421641,"282":0.025968247784915185,"283":-0.033543988209925914,"284":-0.051190093740485144,"285":0.026385030925843767,"286":-0.028983553137596943,"287":-0.06376800591478868,"288":0.021966256123163164,"289":-0.013637956426325697,"290":-0.09146203886388922,"291":0.010259001924138703,"292":0.024665384637330624,"293":-0.0655189267375884,"294":0.039635082599880446,"295":-0.01122339620818852,"296":-0.028086456264128604,"297":0.007539306045198784,"298":0.04812789628922601,"299":-0.0023605932605748,"300":0.045899855444813974,"301":-0.11196369656927013,"302":0.08083159226830045,"303":-0.07588550188080778,"304":-0.08040034480341475,"305":0.01612924141101216,"306":-0.012225983985941349,"307":-0.05255697798726364,"308":0.022979845286515074,"309":-0.10707135383476787,"310":-0.10149604880000085,"311":0.007273949536088125,"312":0.03965137005954078,"313":0.03236583961384693,"314":0.07747139137575484,"315":-0.07110840509037096,"316":0.014229217942982271,"317":0.008700610540700822,"318":-0.04867876505230301,"319":-0.07490608567358577,"320":0.021397293734557774,"321":0.01941275691884428,"322":0.07582866009821723,"323":-0.10990375048419994,"324":0.051579052847625984,"325":0.01714556346750129,"326":-0.023476080664820705,"327":0.08684244110882029,"328":0.0035951715781904455,"329":0.02522052331683651,"330":-0.036854215701425413,"331":0.0018665790435906059,"332":-0.018593059612502773,"333":-0.014225315778866971,"334":-0.07635455928835609,"335":-0.10974117048663383,"336":-0.05383720177071744,"337":0.01818153471329232,"338":-0.027859447619498174,"339":-0.02089890596014278,"340":0.01541262754550599,"341":-0.03355208226443079,"342":0.016529261718077403,"343":0.02051150834729374,"344":0.00241260064926852,"345":0.04102401194125525,"346":-0.030204038123810794,"347":0.030847957325755796,"348":-0.02939550857164513,"349":0.04026865767127982,"350":-0.04189828486490682,"351":-0.027547885129293712,"352":-0.016486049896175428,"353":-0.03261706192492296,"354":-0.01283476743846047,"355":-0.04892228861242023,"356":0.08851092986180485,"357":0.014509053091868326,"358":-0.011967273772089237,"359":0.008445229850765864,"360":0.046372337864896855,"361":0.002300366431919736,"362":-0.014420431554629439,"363":0.07480201485013302,"364":0.056909289860145804,"365":-0.0664692686047703,"366":0.052941255365721154,"367":-0.1202967193826964,"368":-0.01595253661195568,"369":-0.017403721622324016,"370":-0.01372976430446809,"371":0.038358039576991854,"372":0.002653476773435036,"373":-0.034900125637555346,"374":-0.11471629601132746,"375":-0.05677802914331847,"376":0.032164835693123436,"377":0.03522231688300155,"378":0.07197452483149115,"379":-0.030245233754059797,"380":0.03555991134854729,"381":0.025491624114979062,"382":-0.018261860559754716,"383":-0.012440835160801942,"384":0.09244569758494595,"385":0.006859682807865894,"386":0.053816165896217405,"387":0.07131533186925945,"388":0.08915866504829997,"389":0.0781191015925821,"390":-0.10525259276049809,"391":-0.012463931773778745,"392":-0.0698833810040124,"393":0.019519097305721246,"394":0.0811602901629161,"395":-0.0712709911520073,"396":0.03205039655736011,"397":-0.04609353406430664,"398":0.011721092101389597,"399":0.004612434129030269}},{"sx":5,"sy":5,"depth":16,"w":{"0":0.06343583299818938,"1":0.024464893761029106,"2":-0.0033522732947523794,"3":-0.010404838291793742,"4":-0.014681311433477229,"5":-0.04971257033631461,"6":0.03944724980563022,"7":-0.03674040575924097,"8":-0.14168770007322298,"9":-0.09075730642352975,"10":0.005293000318148094,"11":-0.041797137063536334,"12":-0.004218172725620269,"13":0.022115394294472054,"14":0.07514914155813593,"15":-0.005583384494778332,"16":-0.08186067386435932,"17":-0.031419255045384537,"18":0.005568371018973368,"19":-0.048847171919719226,"20":0.07731769031286113,"21":-0.07577831443984474,"22":0.06654190242242745,"23":-0.012655002275137203,"24":-0.09398276852811031,"25":-0.058309827309946584,"26":-0.02827722359482211,"27":-0.06769236419941572,"28":0.04015264401446843,"29":-0.019111338750574212,"30":-0.03165189564324253,"31":-0.018166310644703112,"32":0.10429120673945755,"33":-0.05200461885262771,"34":0.01466861096431354,"35":-0.10862740691949732,"36":-0.1124244075836656,"37":-0.029170586638701614,"38":0.03668214770683417,"39":0.0011591292643735878,"40":-0.10015870590529877,"41":-0.19577156430572365,"42":0.10406907168960812,"43":0.033527800585413055,"44":0.049932845845929635,"45":-0.018418343730545555,"46":-0.0037998569813041364,"47":0.07558804695873801,"48":0.001972365813379643,"49":-0.11046224575489916,"50":-0.07874971465164908,"51":-0.035415562049952255,"52":-0.03216161797165356,"53":-0.0006684961074230934,"54":0.06080407088451715,"55":-0.033161485598884,"56":-0.04936608359220601,"57":-0.04263557355030945,"58":0.048855906782860135,"59":-0.06543711158718267,"60":-0.06746556616983114,"61":0.059340262155546566,"62":0.0239847968007123,"63":0.10896667573910286,"64":-0.03864171882365213,"65":0.007331556182582299,"66":0.08071592061764729,"67":-0.08902726112278675,"68":-0.053274623675463505,"69":-0.06533966047206181,"70":0.14053603170000484,"71":-0.02089573319439322,"72":-0.07463222912977283,"73":-0.08419411916786304,"74":0.04647800730599327,"75":-0.02651355528129437,"76":-0.08096038714479986,"77":0.02054133720288491,"78":-0.12187654730249102,"79":-0.0985754232530358,"80":-0.05447829608768336,"81":0.07580845931246676,"82":-0.07151054742111615,"83":0.02759382977194267,"84":0.03930703633901943,"85":-0.009241241079926245,"86":0.040469087037198495,"87":-0.014990243505770811,"88":-0.033110236881946205,"89":0.041741603301022556,"90":-0.0068958454330904344,"91":0.019710231495894293,"92":-0.04153934641647935,"93":0.04625399792904494,"94":0.018311773751186585,"95":0.0450994479942908,"96":-0.03264252262044638,"97":0.03493733031954653,"98":-0.10280875072960659,"99":-0.09349541439482809,"100":-0.0862331223101517,"101":-0.07322070493249422,"102":0.013693834447875612,"103":0.08549763349835177,"104":-0.022667067003781963,"105":-0.02269652706010169,"106":-0.005383350382236566,"107":0.035712581928407816,"108":-0.1658845511857336,"109":-0.0744319691165471,"110":0.0033865321650487796,"111":0.11367629366450377,"112":0.05734432975611976,"113":-0.05234845166833369,"114":0.0978668866874045,"115":-0.09567823156911043,"116":0.07681187646905172,"117":-0.13623785099131955,"118":0.04289889018500112,"119":0.0023064410342406743,"120":-0.01123908446830162,"121":0.021743363980502868,"122":-0.11798754549778154,"123":0.07838002852577015,"124":-0.002452008479972425,"125":-0.0736415556932618,"126":0.01964554607964471,"127":0.07942557222383786,"128":-0.02126655420534977,"129":-0.030443615720907206,"130":-0.06862993108726378,"131":-0.08880192676079646,"132":-0.019704695647583367,"133":-0.04872386875927497,"134":-0.006357193642270043,"135":-0.006419843967751152,"136":-0.06469911721253423,"137":-0.1166841651093485,"138":-0.03932444999677175,"139":-0.04525577191529545,"140":-0.04466478088210852,"141":-0.024728245468539054,"142":-0.0016514220852196274,"143":-0.029660426866742827,"144":-0.016101402953649507,"145":-0.03432264444646466,"146":-0.033434525434021145,"147":-0.07647116345369491,"148":-0.008062353656061335,"149":-0.13280379045714094,"150":0.11873581904453506,"151":-0.027107941209617712,"152":-0.06934404770448707,"153":-0.12117768443630314,"154":0.015108483448988708,"155":0.01510629657970323,"156":-0.01040832180253064,"157":-0.006408863197982498,"158":-0.024570097893829655,"159":0.01581521403740379,"160":0.04870216359127057,"161":0.034176372546296775,"162":0.08684326557974958,"163":-0.01676510173375715,"164":-0.05445581142406492,"165":0.015578506697816037,"166":0.10439563747575926,"167":0.043771169311400605,"168":-0.03221354012968272,"169":-0.08703992342528101,"170":-0.12372195090210328,"171":-0.014416260008117123,"172":0.0384619018216714,"173":0.004688385490791298,"174":-0.04494302846712739,"175":0.04345643212050181,"176":-0.00813747301306345,"177":0.06158295200715384,"178":-0.018319837705216776,"179":-0.07758702256033834,"180":0.01812654623202979,"181":-0.13178008520357806,"182":0.09641816090915724,"183":0.0021376896374518954,"184":-0.11645290042566853,"185":0.06243996444418488,"186":-0.05842777932491808,"187":0.05788066567519899,"188":-0.03933984768860557,"189":0.001032642332715464,"190":0.025309612995091508,"191":-0.023902457997678962,"192":0.016066415196130505,"193":-0.0008659043005655756,"194":0.056129689310333575,"195":0.004403529666961546,"196":-0.04952565313216341,"197":-0.045712258208746984,"198":-0.00894923235223571,"199":0.007061693485745845,"200":-0.12460731047810991,"201":-0.0459783853421953,"202":-0.014192340648150673,"203":-0.0006952764250425258,"204":0.03499233299017755,"205":0.10605651709474263,"206":0.05350910510192645,"207":0.03223825187045717,"208":-0.08975391181270705,"209":-0.03416558524981234,"210":0.01111618062450555,"211":0.04133779783566633,"212":-0.06511729718985367,"213":-0.06308369411780412,"214":-0.07529628987264995,"215":-0.056678364797388775,"216":-0.0015395973874124643,"217":-0.044799748587372186,"218":0.032426009688446895,"219":-0.020842755441767332,"220":-0.038273827308460656,"221":-0.013184871982456896,"222":0.009087652080412442,"223":0.015828006628821722,"224":0.04170300470083285,"225":0.13256835438615908,"226":0.07573486863791482,"227":0.030100874104319983,"228":0.0702167128972452,"229":-0.01825567000806771,"230":0.045980704622133585,"231":-0.09200686483285843,"232":-0.03955671518970306,"233":-0.027903335053880672,"234":0.0032770646338450005,"235":-0.06993658906089772,"236":-0.041270010773303376,"237":0.024210351861111316,"238":0.038219150778416276,"239":0.03637508335048323,"240":-0.012190329546354512,"241":0.0466378417813991,"242":-0.08184127775476202,"243":0.035477802906420074,"244":-0.009407004753121697,"245":-0.0858841081957022,"246":0.002617966228450668,"247":-0.01518149483903104,"248":-0.028934450370299805,"249":-0.0694005194992575,"250":-0.04819366147581151,"251":-0.055684617234837405,"252":-0.08906170761661099,"253":-0.012018770343647638,"254":-0.010941538066925693,"255":0.03349331707045634,"256":0.024536846208685407,"257":0.04307075580122282,"258":0.02177452146645766,"259":-0.0029284444058171586,"260":-0.04319502896508535,"261":-0.01947199478193063,"262":-0.07158338544868274,"263":-0.07421056879609476,"264":-0.04073014103047114,"265":-0.01408123112337645,"266":0.011557161065067309,"267":0.023579892569475423,"268":0.034502144457779854,"269":-0.033444610499384894,"270":0.042936197634106436,"271":-0.0075232950301279645,"272":0.03726667567443642,"273":-0.06463495833007162,"274":0.007003770299641912,"275":-0.09260733534726152,"276":0.01946023296239741,"277":-0.1170552886471017,"278":0.041818221502428234,"279":-0.00753035648776958,"280":-0.07478854614669865,"281":0.031349561941489884,"282":-0.027538956987989947,"283":0.03983781817151498,"284":-0.02788577746885654,"285":-0.0638690068330065,"286":-0.012348960634873781,"287":-0.0612107071264294,"288":-0.07187742032602518,"289":-0.05658906470410381,"290":-0.036748753321083384,"291":-0.022316356597670214,"292":-0.11348305788932175,"293":-0.05949858844107119,"294":-0.008268627285003386,"295":-0.02790727185400309,"296":-0.006981609259817071,"297":0.01070822964891181,"298":-0.0919082024870857,"299":-0.11917450921009032,"300":0.019603356883685252,"301":0.0752277446701724,"302":0.02692977648452391,"303":0.024256063451116406,"304":0.022301910728345736,"305":-0.03826662351626498,"306":-0.03767462559279548,"307":-0.06648004612338762,"308":-0.0355945207641686,"309":0.05571988891077053,"310":-0.06781341764021279,"311":0.018340366102492893,"312":0.0510738228286977,"313":-0.013077044141431484,"314":0.010822375672823275,"315":-0.022709836866249496,"316":-0.034818140188965195,"317":-0.032410579025647646,"318":-0.04516701046448868,"319":0.006628655509377644,"320":-0.0022292641968574074,"321":-0.07850525756647998,"322":-0.009228059215482087,"323":-0.04691860761602955,"324":0.03245222073725005,"325":-0.035626717093708946,"326":-0.04489485041000656,"327":0.034486384840593264,"328":0.0058379473147179605,"329":-0.04136071171001202,"330":0.02769073339927132,"331":0.1767653704047574,"332":0.056486487590709886,"333":-0.11456398284338166,"334":0.024922589997528572,"335":-0.028173792620813303,"336":-0.033914593620036244,"337":-0.018784303273128924,"338":0.012492957763693493,"339":0.008379200955020046,"340":-0.06091734028478501,"341":0.01939062125736645,"342":-0.013096853394136637,"343":-0.06332723594446484,"344":-0.009921458519449273,"345":-0.09686062105529988,"346":-0.03352372204491766,"347":0.009219179653348243,"348":-0.0052146726686308886,"349":-0.0831246813122994,"350":-0.03242204510722076,"351":-0.036148208564926135,"352":0.018775201224710394,"353":-0.0049197167281481305,"354":0.010530145612653625,"355":0.05642286856154468,"356":0.03584269529587913,"357":-0.0009537648610670976,"358":-0.017027708526339128,"359":-0.0452190220661139,"360":-0.09273353079085782,"361":-0.008450258995136512,"362":0.0005871193716771248,"363":-0.06346907211674825,"364":-0.04162534208443329,"365":-0.0335667700363519,"366":-0.04422136820434854,"367":0.03540983650918733,"368":0.03500731564008726,"369":-0.07275597353486608,"370":-0.0526384819017405,"371":-0.019905274665423925,"372":-0.040991286813257595,"373":0.022728017794399886,"374":-0.11569336580890405,"375":-0.006958066712276135,"376":-0.05040302964947384,"377":0.0024699379243995805,"378":-0.05730608344306896,"379":-0.05132493383373203,"380":-0.04652560025363972,"381":-0.015184715894205263,"382":0.046555686546096216,"383":-0.0022608552681933456,"384":-0.008710512368530649,"385":-0.01938979781324184,"386":-0.11888538188131824,"387":-0.09253497271773015,"388":-0.09760966749778753,"389":-0.03911355125962637,"390":-0.07356654506045396,"391":-0.11109053377482829,"392":-0.03254125879057393,"393":0.043567548530137765,"394":-0.043057644423583084,"395":-0.04057256545519746,"396":-0.09193851030829753,"397":0.02188373763717302,"398":-0.10732303730609663,"399":-0.07318913435849421}},{"sx":5,"sy":5,"depth":16,"w":{"0":0.018567367841607556,"1":-0.05396885655212836,"2":-0.031591736923502485,"3":-0.07536887738772939,"4":-0.004602050933148468,"5":0.0056725769099315836,"6":0.02160712219962978,"7":-0.07775559400297208,"8":-0.04757586881622873,"9":-0.04199721052156941,"10":-0.12962261955084714,"11":-0.09046269989291426,"12":-0.045209912316668856,"13":-0.12261364163084511,"14":-0.07696174866407068,"15":-0.025249902380606114,"16":0.05080429401519098,"17":-0.03531982534728218,"18":-0.06030140694482652,"19":0.008750029209849,"20":-0.05329575610277377,"21":0.016307876818542566,"22":0.028396100726687783,"23":-0.10727730846670318,"24":0.05285530849976432,"25":-0.02248899982035163,"26":-0.019896069798216762,"27":-0.040551034670795794,"28":0.013244016534563032,"29":-0.02583746012980473,"30":-0.0574043934954601,"31":-0.07657889378114502,"32":-0.01556837088066613,"33":-0.06902930362769556,"34":0.00815911842606185,"35":-0.029761702930608838,"36":-0.05643995196107967,"37":-0.03800629786389736,"38":-0.06251601574836832,"39":-0.14827088938129038,"40":-0.10200672656697994,"41":0.013898699288628278,"42":-0.13180183689595276,"43":-0.10858399651288753,"44":-0.006800761782456459,"45":-0.042158389746868925,"46":-0.11488494806695851,"47":-0.08606673251873333,"48":0.07097605078834118,"49":-0.08269727044382541,"50":0.029590752240415425,"51":-0.04108608400588594,"52":-0.07127052665807886,"53":-0.018016325834424297,"54":-0.006100803099382714,"55":-0.05553504346731853,"56":-0.04163371230055962,"57":-0.07615696072509168,"58":-0.13076309799207786,"59":-0.0370817094799453,"60":-0.10802458898086395,"61":-0.09296309028220776,"62":-0.05626436215027254,"63":0.05606478196546015,"64":0.09093366659981682,"65":-0.022942888867539306,"66":-0.06398802670762974,"67":-0.022747829682060024,"68":0.026583881438703192,"69":-0.03268366118408,"70":-0.07377295762771718,"71":0.004670002726769856,"72":-0.025321640519244633,"73":-0.0005858172650748853,"74":-0.1739698627619227,"75":-0.0029790434679173717,"76":-0.08823263308944942,"77":0.013523694019449611,"78":-0.07214552109234769,"79":0.019612166902193834,"80":-0.05037500304367916,"81":0.02121312697145742,"82":-0.019588112315195753,"83":-0.03480763003060411,"84":0.05438403082241709,"85":-0.02529489098510235,"86":-0.05627018745683503,"87":-0.06410243452198916,"88":-0.02243515975837031,"89":-0.02970834404046323,"90":0.03484079336987596,"91":0.04244955261033614,"92":0.055019037090977274,"93":-0.07993962036990292,"94":-0.01455965919321543,"95":0.024914039049508153,"96":-0.030609788878181908,"97":-0.07710438326474128,"98":-0.08715211177870397,"99":-0.004813859421045545,"100":0.016198261879343503,"101":-0.017242649877976905,"102":-0.02944245929468636,"103":0.057525154455380055,"104":0.061111016852094815,"105":0.008572695633932178,"106":-0.02292378742905047,"107":-0.06628434965735415,"108":-0.08051818639460749,"109":-0.06719526402012152,"110":0.06873018536150752,"111":0.01741982039069794,"112":0.004253075620339742,"113":0.009676007289731163,"114":-0.22053871416580906,"115":0.0610884597213014,"116":-0.0691128053228914,"117":-0.016445541896574902,"118":-0.08159396745825066,"119":-0.04400979556785767,"120":0.021580091919226996,"121":0.03733807697652334,"122":-0.04613156933798351,"123":-0.02725306220531244,"124":0.06554951707896586,"125":0.005699130679364194,"126":-0.04511265320296535,"127":-0.09546161571990049,"128":0.04414005652630037,"129":-0.028702457134456655,"130":-0.12373371066630078,"131":-0.036590758377481304,"132":-0.04263540332769733,"133":-0.08335553765677176,"134":0.03673828193571714,"135":0.023855496179347013,"136":0.0559160947518937,"137":-0.059486819918586,"138":-0.0864797123161171,"139":0.009842271528395626,"140":-0.03359393138256792,"141":-0.014521953019201665,"142":-0.011733202704006511,"143":0.000700898607401759,"144":0.03736431206136623,"145":-0.0869468021944681,"146":-0.04659123197383229,"147":0.0014745503193959503,"148":-0.024641474089059565,"149":-0.1380020010945039,"150":-0.05696180433152502,"151":-0.012306811366579476,"152":-0.06287626858118583,"153":-0.0535150051747618,"154":-0.1256328689884617,"155":-0.06228083209742656,"156":-0.061115142619520245,"157":-0.10067085051824415,"158":-0.0690102732616236,"159":-0.030762109753609393,"160":-0.04835206031593302,"161":0.004813331352645198,"162":0.028502988618632246,"163":0.11162768355514822,"164":0.04498964492462922,"165":-0.040795936938745204,"166":0.003796852565183733,"167":-0.014022311824882722,"168":0.02216269187983078,"169":0.19919274791375757,"170":0.13263619608450317,"171":0.006275192557493755,"172":0.046757575219593756,"173":-0.09463306087928147,"174":0.01733707940111914,"175":-0.0640667684225257,"176":0.0894314105304939,"177":0.07748522614280345,"178":-0.009263759645369298,"179":-0.002058708029982459,"180":0.039443035648635716,"181":-0.02206085592160419,"182":-0.03704313871441979,"183":-0.06306797870963508,"184":0.010022191390561203,"185":-0.019898461600561756,"186":-0.028309745843896766,"187":-0.03678704579913203,"188":-0.07060630477709492,"189":-0.048220371268077385,"190":-0.06335318075063688,"191":-0.024759245168566594,"192":-0.04123851793434189,"193":0.053276402031918586,"194":-0.11241105799653704,"195":0.04961598696204713,"196":-0.030620195132724626,"197":0.07607426586417486,"198":-0.03985500097887977,"199":0.16007641362895916,"200":0.02680776068093254,"201":-0.008969210639026169,"202":-0.05045380075477165,"203":-0.023635387487810917,"204":0.05334516996873927,"205":-0.0782903461244533,"206":-0.10245927860566759,"207":-0.008528846273749235,"208":0.013507407289380248,"209":-0.10069288246216875,"210":-0.0826011324841346,"211":0.03130479799936601,"212":-0.04956862638795177,"213":0.06179276430785019,"214":-0.0033483243904708047,"215":-0.09978265817594406,"216":-0.16248676828684033,"217":0.01632109431786958,"218":-0.037838925237973976,"219":-0.026870921837490163,"220":-0.18638143623391384,"221":-0.08046885076873156,"222":-0.08097877407339228,"223":0.012850532934769704,"224":-0.08932878091503395,"225":0.051807395720210286,"226":-0.046063437751353666,"227":-0.05264016407097631,"228":-0.019761365996058707,"229":0.01788790205904599,"230":-0.005793242575922709,"231":-0.01114636834341253,"232":-0.0870811427451619,"233":-0.015066971282324189,"234":0.04264215527952584,"235":-0.05801221890308267,"236":-0.07943958082051852,"237":-0.020838736259509244,"238":-0.12429198066782843,"239":0.02222476076354189,"240":-0.06438193926584775,"241":-0.01687298044246052,"242":-0.035762471267678606,"243":0.03690254323192235,"244":-0.037342047818788526,"245":0.027578860058184274,"246":0.07591339022973594,"247":-0.06459017462471793,"248":0.06496753222481161,"249":0.03016423021514333,"250":0.08291676654472391,"251":0.0629849021937964,"252":0.08238446445100385,"253":-0.00345509375322484,"254":-0.013348820187031322,"255":-0.012332414846024665,"256":-0.08997384331797108,"257":-0.07250421656320584,"258":0.08401165690862056,"259":-0.012452625524946142,"260":0.04377153457613778,"261":-0.04314411321594549,"262":0.08668358330982759,"263":0.06443214039559528,"264":-0.06855080190682955,"265":-0.03847242375660538,"266":0.09841428481811185,"267":-0.041659738730830356,"268":0.04695810882288198,"269":0.01323685893726748,"270":-0.03600391998302079,"271":0.03855132487568184,"272":-0.025827335074248836,"273":-0.0050380559580026196,"274":0.02720357378140439,"275":0.010547140571194822,"276":-0.1338258379844358,"277":0.014618966519394754,"278":0.07362886656784111,"279":0.07452829188338222,"280":0.058222986850377086,"281":0.04061223898335247,"282":0.031138939971517562,"283":-0.035630496455489664,"284":0.07167700965984866,"285":-0.019658868667974727,"286":-0.006878212223734912,"287":-0.08710886211150064,"288":-0.031203076867539148,"289":-0.030882610751136897,"290":0.08465503770769806,"291":-0.11508694623136047,"292":-0.06540978425682027,"293":-0.014614958187447713,"294":-0.01579363957303632,"295":0.02106011016313676,"296":-0.10772644356916211,"297":-0.0381069914992637,"298":0.009458099997337868,"299":-0.0564588348557337,"300":0.01799403265170429,"301":0.010715431847873436,"302":-0.019163344476903384,"303":0.005904239146748934,"304":-0.10995721665717707,"305":-0.060399599145404485,"306":0.12058973059246011,"307":-0.09808486001711317,"308":-0.02545248430002786,"309":0.040344750263961025,"310":0.02840182087095918,"311":0.01818446793571686,"312":0.012603131297329746,"313":0.0457987652966446,"314":-0.020235227448867594,"315":0.12724072784771168,"316":0.02943443070009333,"317":-0.05355536160949293,"318":0.02340850770571978,"319":0.060766371483597995,"320":0.0896022189337821,"321":0.005982124190613574,"322":-0.06810416347845967,"323":0.1347385005743479,"324":0.07595218795682956,"325":0.040718152404725,"326":-0.007785407797938032,"327":0.03868184353160534,"328":-0.05594476223492136,"329":0.07862174871132006,"330":0.10930121203974753,"331":0.035786774343140905,"332":0.03371802062417631,"333":-0.05976360239610266,"334":-0.023605989949852225,"335":-0.10463261806763442,"336":-0.10092800528366486,"337":0.006297917904539235,"338":0.048240722816351875,"339":0.06501242843206814,"340":0.021756967336140305,"341":-0.005588710147171077,"342":-0.04441105518471226,"343":0.053126349727795404,"344":-0.05834362129351369,"345":0.005259526694122739,"346":-0.005298571012422663,"347":-0.006308984012893435,"348":0.07963785873034172,"349":-0.053596369974874714,"350":-0.04543861006211566,"351":-0.021147364007480747,"352":-0.01200907144636696,"353":0.061029273812055945,"354":-0.00035679229344602245,"355":-0.07956642721843414,"356":0.007671248256990302,"357":0.0005999942183985895,"358":-0.08187966162219483,"359":0.043382750131283315,"360":0.005973372856459839,"361":0.02586415390951241,"362":0.10011983208839093,"363":-0.03132109017930721,"364":0.06725078719656274,"365":-0.0007299280337700492,"366":-0.06275238605567143,"367":0.04087118011186804,"368":-0.038902697249654755,"369":0.030558571288650027,"370":0.132457924469332,"371":0.037729047890872745,"372":-0.041611231620618395,"373":-0.0250164342218491,"374":0.007097921588366007,"375":0.04838500184603339,"376":-0.03730618522909132,"377":0.01657818078397264,"378":-0.1264897335377209,"379":-0.01390715400265811,"380":0.06477723416562843,"381":-0.0978788711380567,"382":-0.007049947634710488,"383":0.07694357564930297,"384":-0.08439616751975536,"385":0.01378809307112815,"386":0.13641613057533314,"387":-0.03675515487316767,"388":-0.04146906391282986,"389":-0.049064080794411366,"390":-0.0245905822066574,"391":-0.002581729548647571,"392":-0.05037932607993217,"393":-0.025224525694321574,"394":-0.029519962156043255,"395":-0.0951497019753418,"396":0.0008296494656508465,"397":0.04066069456724798,"398":-0.020903436113277378,"399":-0.09143814462806217}},{"sx":5,"sy":5,"depth":16,"w":{"0":-0.04442217525793713,"1":-0.12165299831640981,"2":-0.050471816809483774,"3":0.037086524077582866,"4":-0.03122013160449177,"5":-0.04763602060495685,"6":-0.11302587104232759,"7":-0.09694207393953651,"8":0.03758284116916985,"9":-0.0017236607971642965,"10":-0.03280518019196062,"11":-0.013510770716845914,"12":-0.046086171006989585,"13":0.015755830556956972,"14":-0.04624702933526491,"15":0.0010465010435518436,"16":-0.01105609784004403,"17":-0.07665689045696451,"18":-0.08522789728849793,"19":-0.027844982260669168,"20":-0.07591146774036134,"21":0.03093446710228113,"22":-0.0037068007765780225,"23":-0.037863737040860636,"24":0.05260906823448689,"25":-0.030973920117325165,"26":0.046143010296897345,"27":0.04011638705049917,"28":0.061068434787179576,"29":-0.0012605405179204564,"30":-0.009532010429355559,"31":-0.03054981226778001,"32":0.03417381926565606,"33":-0.05726872666501659,"34":-0.017807609115772095,"35":-0.023625343127789272,"36":-0.06836768835313271,"37":-0.07919364805760819,"38":-0.056843588729400936,"39":-0.034342479107669154,"40":0.021139420478629385,"41":-0.1020760092006838,"42":0.03297569349017081,"43":0.07090844618581768,"44":-0.004555923062246089,"45":-0.0985255859525495,"46":0.08753685090950639,"47":-0.06072621536283256,"48":0.06417414505694753,"49":-0.04609100942397087,"50":0.0016655543886290552,"51":0.014976066098248227,"52":-0.048490346903906474,"53":-0.04976858911958423,"54":-0.023513798535858013,"55":-0.0571422799610617,"56":0.006808482462429642,"57":-0.036480152078574975,"58":0.03622938480174881,"59":0.03277336777032292,"60":-0.0560997399331113,"61":0.03312050929483895,"62":0.0015299594160586866,"63":0.0862496805857646,"64":-0.03172613608519853,"65":-0.017872834103189444,"66":-0.012514192716299615,"67":-0.036183023164551215,"68":0.05371908875449586,"69":-0.08874256171998644,"70":-0.057290116615598345,"71":-0.05771225646641285,"72":0.015333783677824673,"73":0.02075483230787281,"74":0.08573782145522764,"75":0.041853276915653694,"76":0.052022817264955876,"77":-0.02436412198848143,"78":-0.031734321540866035,"79":0.0529733381491044,"80":-0.06974645460920906,"81":-0.09832209251672476,"82":-0.07558078624614736,"83":-0.04595593667935014,"84":0.045925008131674216,"85":-0.05016225326024355,"86":-0.08521118717580614,"87":-0.03638089777847062,"88":-0.045059048839759676,"89":0.006171591319928715,"90":0.03703034476533964,"91":0.04676026175863698,"92":-0.03080968491786819,"93":0.007499388198938528,"94":-0.002948054676130105,"95":0.0013926879307095026,"96":-0.038877033407568075,"97":-0.0720523393959844,"98":-0.046148198287647074,"99":-0.005061327863893522,"100":-0.0450494498575209,"101":-0.02349861160063355,"102":-0.029510140220820946,"103":-0.06009362408561201,"104":0.011100703179965275,"105":-0.010078206658964067,"106":0.11287736972836104,"107":0.0824423571922429,"108":-0.0027584688195234014,"109":-0.06028990698608932,"110":0.024778274842858234,"111":0.002852070557362183,"112":-0.049251971075653066,"113":-0.13459656461841815,"114":-0.04902598927927985,"115":-0.07529249458945994,"116":0.003188576841503932,"117":-0.005103091357258209,"118":-0.06967391254609571,"119":-0.04202990570536264,"120":-0.001723213915705923,"121":-0.04095625367043169,"122":0.07453937662735152,"123":-0.017885371073886578,"124":-0.023616467720838277,"125":-0.10979782522149761,"126":-0.015318552417949051,"127":-0.01430001976932311,"128":-0.026077449422185733,"129":-0.0947158370162435,"130":-0.001623964607103848,"131":0.03304296741221838,"132":-0.07009007436567047,"133":-0.07304874185763824,"134":0.03700877334724654,"135":-0.04069213971138623,"136":-0.0009930713047920908,"137":0.013413494668636675,"138":0.09265210185345353,"139":0.06680155891839823,"140":-0.10621011322776898,"141":-0.008061210219866041,"142":-0.06198364029525687,"143":0.017989419896748692,"144":0.13751242767542324,"145":0.01946330507824879,"146":-0.04947157704903938,"147":0.0125758530356009,"148":-0.03938035536897593,"149":-0.05323868314578401,"150":-0.01787706097725649,"151":0.06566040677692873,"152":-0.08205381127382688,"153":0.0515610923204175,"154":0.009233855847414783,"155":0.09119026223757914,"156":0.03232380184622551,"157":-0.0016870085886208292,"158":-0.01290612621552266,"159":0.035081907053767875,"160":0.02546086734331656,"161":-0.05113381493350474,"162":-0.14355109717493084,"163":-0.025506339963859773,"164":0.10111642565063578,"165":-0.003440438826843239,"166":-0.0558952217460542,"167":-0.11137964000581428,"168":-0.03503440550684568,"169":-0.05982799786507202,"170":0.03694364060864346,"171":0.05451111890772806,"172":-0.061507427252751615,"173":0.02836481840136848,"174":-0.12308641915136137,"175":-0.04891812623559753,"176":0.05769476139963819,"177":-0.10461219281019682,"178":-0.041216013285079664,"179":0.07228055481144449,"180":0.001296890955085431,"181":-0.12120880651926609,"182":0.0001286430624950017,"183":-0.08445819325781487,"184":-0.03034833104127668,"185":0.11064005410584138,"186":0.027121733880365286,"187":0.01477877979901354,"188":-0.005611983077207381,"189":-0.0851577191076823,"190":0.13791031029014447,"191":0.022959189392172816,"192":0.05658705156507614,"193":-0.039640769764907026,"194":-0.033238615551440656,"195":0.025499842058237774,"196":-0.031046822841451747,"197":-0.07857781619415716,"198":-0.07118586218461856,"199":-0.006746163636118399,"200":0.02888556346566271,"201":-0.05088584941592185,"202":0.06958083915818197,"203":0.03928477538161741,"204":0.1198784113238206,"205":-0.004067863258490497,"206":0.030827839498352643,"207":-0.03314152156885363,"208":0.04412541443206608,"209":-0.11718559950574155,"210":0.02478755107066402,"211":-0.07452943238897013,"212":-0.04505871131883808,"213":0.004872572534188093,"214":-0.024053487960443418,"215":-0.06815492788443622,"216":-0.0009559652134583554,"217":-0.09414805280443009,"218":0.058381450778151045,"219":-0.03142972340486208,"220":-0.06051258308078766,"221":-0.036790820657352535,"222":0.04898245584000841,"223":-0.010121057902334404,"224":-0.0036096557773088564,"225":-0.12256483741066711,"226":-0.09708899359193253,"227":-0.028082440698973372,"228":-0.08023654541485228,"229":-0.11475976994927112,"230":-0.01129863442476923,"231":-0.052492888858632354,"232":0.0327432239815462,"233":-0.08578033446881118,"234":0.05948882610663385,"235":-0.03585366193777839,"236":0.08466730751011327,"237":-0.03626417141675292,"238":0.09691963626128067,"239":0.10976141801684247,"240":-0.12971791694582743,"241":-0.05279248228760106,"242":-0.03727059390375951,"243":-0.002120654485034735,"244":-0.0023938679075299167,"245":-0.0008633861197471624,"246":-0.030641364450211248,"247":-0.069693136743798,"248":-0.012382442626212188,"249":-0.021321254426987825,"250":-0.022763825587969685,"251":-0.07604872073936002,"252":-0.023407719037286858,"253":-0.06873789477737514,"254":-0.08168853835939531,"255":-0.08717859027214421,"256":-0.026305341787381052,"257":-0.1613924658459354,"258":-0.046561332555580245,"259":0.01487812768930632,"260":-0.017826555814635187,"261":0.029616976569660287,"262":-0.009136311040393521,"263":0.030862256026757715,"264":-0.070848687758922,"265":0.07471731956391797,"266":0.014613376773928691,"267":-0.004858275322648339,"268":0.003729836417599562,"269":-0.03406543086033251,"270":-0.016873431107382098,"271":0.049622801064372425,"272":0.041852548152768516,"273":-0.049488508713186066,"274":-0.09071204704310185,"275":-0.00009576221266504163,"276":0.047132331969668324,"277":-0.02395604823404788,"278":-0.05532744762058839,"279":0.0073679356064160805,"280":-0.024481984011004102,"281":-0.07783714039122562,"282":0.03715560852441012,"283":-0.037751745874392076,"284":-0.010186951554406047,"285":-0.02867045741016027,"286":-0.008728673429533193,"287":0.01465682299571125,"288":0.0623987789164749,"289":-0.02252442874835175,"290":-0.01653801545897856,"291":0.05570682367726469,"292":-0.03912128560838181,"293":0.03560568341930599,"294":-0.06643539706549072,"295":0.039627908900644056,"296":-0.01914881176800685,"297":-0.03018019303800418,"298":0.09263312033338918,"299":-0.05864136795490934,"300":-0.021854288678464923,"301":0.00144942741112383,"302":-0.008324163666515874,"303":-0.026021067941568176,"304":0.023765255440675554,"305":0.05377598224826894,"306":-0.056279125778269046,"307":0.03510825105550488,"308":-0.022410751798827705,"309":-0.038989017020844514,"310":0.0390440163935499,"311":-0.009119365718462061,"312":0.02623658909641631,"313":0.06850298021004388,"314":0.1669611709035251,"315":0.010591778257762708,"316":0.08056715340761371,"317":-0.0772369847161106,"318":-0.0359137599252635,"319":0.008486152609850061,"320":-0.056043841388397804,"321":-0.1507732070278773,"322":-0.003150599245143413,"323":0.04035313353353172,"324":-0.09653411393819664,"325":-0.008851285410718893,"326":-0.11735344959379689,"327":-0.03720038217650801,"328":0.03861600155913221,"329":-0.0029655061223701268,"330":-0.06469384390866458,"331":-0.03323178490036478,"332":-0.022843258279475396,"333":-0.060908181059493936,"334":0.025504553724432374,"335":-0.10145804051000486,"336":0.05889142096627905,"337":-0.04387735212379254,"338":-0.0059092204048446185,"339":0.0472863638946539,"340":-0.003606866437603778,"341":-0.05611150762896747,"342":-0.02985292929181164,"343":0.007370562312684709,"344":-0.059928670162907684,"345":-0.07500533729898658,"346":-0.010670884810163294,"347":-0.026431060671401628,"348":0.02416849155444783,"349":0.058868376160265745,"350":0.04747269045766751,"351":-0.015115213075858447,"352":-0.041419480264594494,"353":-0.18655476713227592,"354":-0.09499888704584473,"355":0.001897509777446864,"356":-0.056820387561281605,"357":0.03704454912840567,"358":0.03330249560431791,"359":0.05620720830095374,"360":0.03167396603332821,"361":-0.029165882959848403,"362":-0.013220967983809133,"363":-0.040724760117693874,"364":-0.05019856526439671,"365":-0.004399660407156567,"366":0.008503209159402492,"367":0.011928543053011562,"368":-0.055432282140594834,"369":0.04275334915796484,"370":0.03088834793752375,"371":0.006297630395168264,"372":-0.035664337896667,"373":-0.06262760547399006,"374":0.016902787003908695,"375":-0.03224533514828915,"376":-0.027200735798203497,"377":-0.03230558120917294,"378":0.0461061660172669,"379":-0.030089496012432194,"380":-0.09228464890487108,"381":0.03254498493342995,"382":-0.026123553991243616,"383":0.07859599354982932,"384":0.07330162350786744,"385":-0.11326364744107552,"386":-0.022304744060307982,"387":-0.06241232106033873,"388":-0.021977429049968144,"389":-0.03509916075993187,"390":0.024663933906241952,"391":-0.017135679414001424,"392":-0.006142690161134861,"393":0.008071557154012731,"394":0.02709331691069006,"395":-0.0092427018645933,"396":-0.0020312036279331092,"397":-0.014658614680230787,"398":-0.019253591679279362,"399":-0.09473547051174228}},{"sx":5,"sy":5,"depth":16,"w":{"0":-0.006758115742897413,"1":-0.061666131457191124,"2":-0.03171347401050837,"3":-0.0035878328858210276,"4":-0.12191453315998733,"5":-0.01932242348124069,"6":-0.06118654043652376,"7":0.014245030499386002,"8":0.022743324389439126,"9":-0.21400999997772058,"10":-0.064277467674739,"11":-0.07623997747455914,"12":0.0713931158079477,"13":0.03266664654793783,"14":0.004123956688084555,"15":0.014630833829550022,"16":0.06315398172391692,"17":-0.017499515010077796,"18":-0.11446693225762095,"19":-0.009892579950654696,"20":-0.018927330950219236,"21":-0.0855734731111589,"22":-0.046345744733931084,"23":-0.0029263824785788753,"24":-0.07916961517694576,"25":-0.048761499633938804,"26":0.03004360921922379,"27":0.06649325822349922,"28":0.0434486878358554,"29":0.023048387517391602,"30":0.05938413135285912,"31":0.0954686166985963,"32":-0.06430738533320146,"33":-0.049085614260487985,"34":-0.059466980505682256,"35":-0.07282839527792997,"36":0.024609588894452472,"37":-0.15464902551628046,"38":0.005602474097978301,"39":-0.009856060948072025,"40":0.000584448630710965,"41":0.023300890455729903,"42":-0.03455297233372475,"43":-0.0235644015661839,"44":-0.08405997410408783,"45":-0.006253902475944838,"46":-0.029532430213445475,"47":-0.05179503094992466,"48":0.08772683553685479,"49":-0.04549043624831002,"50":-0.16025036563444678,"51":0.05424970639758582,"52":-0.021374208075779347,"53":-0.04473845594596021,"54":0.030965587130894003,"55":0.01073092394482964,"56":-0.053714965205253,"57":-0.09385453191718109,"58":0.017333013510534106,"59":0.034853039737090884,"60":0.029076810342001512,"61":0.002442680082555661,"62":0.08664927610493635,"63":-0.02318877924571993,"64":-0.012460182387510654,"65":-0.06259607070725501,"66":-0.054576628692325754,"67":0.049832414942661954,"68":-0.04971055544229937,"69":0.08947542163289586,"70":-0.010911617834752268,"71":-0.08305684774836944,"72":-0.050198805550486045,"73":-0.04415253426785319,"74":-0.0462119295858397,"75":0.07533837959089339,"76":0.06388501231106894,"77":-0.026387202668120356,"78":-0.044724252185636845,"79":-0.03526680457723181,"80":0.002015491721038326,"81":-0.04148140840320967,"82":-0.17199377775471533,"83":0.034667881570365745,"84":-0.13213695861624108,"85":-0.13354211212092854,"86":0.03717608113532712,"87":0.01569921261614133,"88":-0.10181917761028017,"89":-0.02831114854620069,"90":-0.07683972699239314,"91":0.06289675143800917,"92":0.046330115793717534,"93":-0.050174262123124015,"94":-0.026932620343648773,"95":0.04016213300224345,"96":-0.06722925761363298,"97":-0.016090708833296587,"98":-0.05629616300410437,"99":-0.0632223069368678,"100":-0.10059263682847591,"101":0.08035917959429655,"102":-0.07538585212061802,"103":-0.0826303316122373,"104":-0.07992360549423588,"105":-0.0423986968456429,"106":-0.034447757630933294,"107":0.05788047820494006,"108":0.02308566711127343,"109":-0.03176566652421381,"110":0.012464669825051735,"111":-0.006486696224869472,"112":0.0063140933649877716,"113":-0.10987483607508315,"114":-0.001893408963356589,"115":0.161817923324159,"116":0.07593539157731503,"117":-0.07907235504532709,"118":0.04610042130122756,"119":0.03960267985149172,"120":-0.024712097590522838,"121":0.0194403841350701,"122":-0.06007211651795578,"123":-0.0457251774980468,"124":-0.046995224139144434,"125":-0.09518307282390118,"126":-0.090529285750959,"127":0.015327906565922573,"128":-0.13067136454874811,"129":-0.004920697384714201,"130":-0.10842320642964774,"131":0.016883941973039496,"132":-0.050495593734761986,"133":-0.026334950261860675,"134":-0.09062883240699167,"135":0.012663628402089712,"136":-0.04223741867114339,"137":0.006757282863127449,"138":-0.15496095310640487,"139":0.0018533446534672925,"140":-0.04823508614985179,"141":0.0261105681780026,"142":0.027181846060795437,"143":-0.08621478413512605,"144":-0.009185691477045692,"145":-0.09193975847657766,"146":-0.05917234524029477,"147":-0.0014925392579745894,"148":0.014416621974060257,"149":0.00008057823705183377,"150":-0.0908377567093055,"151":-0.05400711908994229,"152":0.008115375477579534,"153":0.07800286056257706,"154":-0.06983274843978456,"155":0.011956384561303603,"156":-0.008312573443945462,"157":-0.14278770034072705,"158":-0.053744567470638924,"159":-0.06678714631541857,"160":0.020760193201925715,"161":0.016931872987516302,"162":0.04749680634097506,"163":0.009685090797080784,"164":-0.02163533583524001,"165":0.08478562418884976,"166":0.04823176343535528,"167":-0.06829909596103563,"168":-0.07298674843361982,"169":0.10450341698950529,"170":-0.07774882972541321,"171":-0.06464778306153054,"172":-0.010424507798061578,"173":-0.12047240128081203,"174":-0.11759408971614937,"175":0.008895980949692045,"176":0.011022849864669063,"177":-0.005901973465591888,"178":-0.04217774498509944,"179":-0.011054816751968989,"180":0.06353054531100015,"181":-0.007838123630551228,"182":0.012942875679410819,"183":0.13726611173150235,"184":-0.04828090255614365,"185":-0.060951294930201794,"186":-0.02184932918929049,"187":-0.02384875185745962,"188":0.10722283646370358,"189":0.010793604438001156,"190":-0.0032860552578661377,"191":-0.1858530272329725,"192":-0.03171280622664839,"193":-0.0421032584877027,"194":-0.009466132520953265,"195":0.03004254033398775,"196":0.031530861740596015,"197":0.011420536993253811,"198":-0.048815589677635336,"199":0.06939408946980678,"200":0.032457810350253594,"201":0.04697718954389639,"202":0.03332593302005696,"203":-0.032111415896593394,"204":0.027288667721078626,"205":-0.0038194989977401606,"206":-0.06379232762777347,"207":-0.017536209246093285,"208":-0.08146276169649187,"209":-0.03880999219631801,"210":0.01154588117951621,"211":-0.03510727075955846,"212":-0.008584703403516272,"213":-0.0016733857465583795,"214":-0.0424193906526624,"215":0.07483061611869415,"216":0.055942710831362534,"217":-0.004694601042573335,"218":-0.028073223815967812,"219":-0.063579627274525,"220":-0.0016467293477356458,"221":-0.04629424852479568,"222":-0.197325669076229,"223":-0.16875552644000635,"224":-0.10088922190171193,"225":-0.0697099282211929,"226":-0.029164250483662783,"227":0.05493591299592134,"228":-0.003574523067641126,"229":-0.022059507277036476,"230":-0.09974402193008279,"231":0.006921998359686668,"232":-0.035628825598175914,"233":0.10768861375382566,"234":-0.1010656632275042,"235":-0.051503774370938456,"236":0.04474512398836279,"237":-0.011183483942468896,"238":-0.06842001509984462,"239":-0.10677855627947086,"240":-0.0578497569114527,"241":0.0733003232058364,"242":0.011225513562909972,"243":0.058163667306115344,"244":0.09009237810491749,"245":-0.06030627844167635,"246":0.08233458925964307,"247":0.016761615834537506,"248":0.0246433993052437,"249":0.07938643638551411,"250":0.006337589520160865,"251":-0.0346012565337054,"252":-0.00037513016255404737,"253":-0.0033425504660282287,"254":-0.06922138270021778,"255":0.040845523297507576,"256":-0.0335357921493808,"257":0.02911530044865776,"258":-0.01181260288809948,"259":0.020964791841441892,"260":-0.038431121575778694,"261":0.0027394784140187343,"262":0.0026989236663276326,"263":-0.004768960058994259,"264":0.09076541975792148,"265":-0.0444524938557575,"266":0.12307546378198393,"267":-0.00829480825049131,"268":0.028219788979619853,"269":-0.05517361566857999,"270":-0.06323913285353538,"271":0.05161306208717696,"272":0.025743827575608592,"273":0.04258385457321237,"274":0.03436884899684475,"275":0.01809548867340382,"276":-0.02220169160994292,"277":0.06148096375113586,"278":0.05084615585296596,"279":-0.06593242723687077,"280":-0.024274282249919853,"281":0.003942694758844234,"282":0.0332163962364198,"283":-0.014660441387370065,"284":0.105514352247252,"285":0.043500054383497536,"286":-0.06187062915726562,"287":-0.03830800082230222,"288":-0.03838140853004668,"289":0.04758273176440597,"290":-0.07108564559582545,"291":-0.02401377557438621,"292":0.08897455303959988,"293":-0.06576839123180762,"294":0.06277878454469775,"295":-0.08228877305172445,"296":-0.07474297569260671,"297":-0.004875407331440873,"298":0.12223459201946336,"299":-0.0025773954525614598,"300":0.036549202685585536,"301":-0.04712670668294184,"302":-0.08194971700060143,"303":-0.08876137143658935,"304":0.019004751697461245,"305":-0.07625752149286692,"306":-0.06112857642656992,"307":0.0019816429831637917,"308":-0.07022289929616321,"309":-0.0355625848291167,"310":0.026300360123049156,"311":0.018954041290069532,"312":-0.02203712297867373,"313":-0.008193011404124819,"314":0.05851749910238874,"315":0.06832702038052217,"316":-0.08491419792559791,"317":-0.09154918157772754,"318":-0.0009177828804669752,"319":-0.06967422762162424,"320":0.0634997240001885,"321":0.04436118612945894,"322":0.08684917568795214,"323":-0.009186484283496017,"324":0.02734986394024938,"325":0.07430693411163732,"326":0.00862304341732463,"327":0.039626777779116856,"328":-0.006199032927342196,"329":-0.022947579792455763,"330":0.088243859988471,"331":0.05893205568225627,"332":-0.09467882829926715,"333":0.03212302625121361,"334":-0.114309039578774,"335":-0.027941365413710405,"336":-0.07744188147193438,"337":-0.04353120703284949,"338":-0.024339441507090755,"339":0.06729160189695488,"340":0.0006071417219998931,"341":0.06564234738113178,"342":-0.033452368396032356,"343":0.10599962549290204,"344":0.06973384616221087,"345":0.021666334507654927,"346":0.06770365296285384,"347":-0.023714677335580525,"348":0.06914353429563763,"349":-0.015510040887004022,"350":-0.01953861597118338,"351":0.047382161094929036,"352":-0.06121137063229819,"353":0.029897043577085,"354":0.0631887552703657,"355":0.08102237930917884,"356":0.011404358356326144,"357":-0.08197010813091893,"358":-0.05822252353695498,"359":-0.018084138452281517,"360":0.12856117445793785,"361":0.02170427501967466,"362":0.07951024704544103,"363":-0.076028528708779,"364":0.10994145471362338,"365":-0.0488506410615308,"366":-0.06073252150123136,"367":0.032450461470200725,"368":-0.09445448245202853,"369":0.0352548743330836,"370":0.02302692501286704,"371":0.06842349699791693,"372":-0.031196695846478672,"373":0.03614059617190522,"374":-0.0024241222051942434,"375":0.05401266779802071,"376":-0.04476062689207869,"377":0.007514216767801787,"378":0.12015095155127646,"379":0.01898960827040056,"380":0.09702819637017841,"381":-0.02692078922053178,"382":0.07584941634073424,"383":0.035200555645955735,"384":-0.014096146132216969,"385":-0.03012076033036174,"386":0.06971331947216963,"387":0.0082842854003082,"388":0.029681315077334722,"389":-0.017763729992636694,"390":-0.005197661899985166,"391":0.04313803647350616,"392":-0.02371514486627534,"393":-0.02121320160685416,"394":0.04772343878822863,"395":-0.02683571008899252,"396":0.024584949402542678,"397":-0.03996819192294799,"398":-0.1066150521948804,"399":-0.08110211023869304}},{"sx":5,"sy":5,"depth":16,"w":{"0":0.0632693496957974,"1":0.02636906324157858,"2":-0.020385542838716523,"3":-0.009668909970610332,"4":-0.08479445574879123,"5":-0.06403812406637949,"6":0.02206190758315215,"7":0.027075543046178544,"8":-0.029005525224895516,"9":-0.021396691997406,"10":0.03831506566770941,"11":0.05678064978020716,"12":0.05047436555021578,"13":0.07056352351037914,"14":-0.015745808238127438,"15":0.056736463065339825,"16":0.1367715055144312,"17":0.05035694861384023,"18":0.03427074919498268,"19":-0.022935926861228886,"20":-0.06373165332687948,"21":-0.031026134888631707,"22":-0.06861969558138699,"23":-0.02323202190528622,"24":-0.004437468069100583,"25":-0.006397058860309126,"26":0.1381933138455343,"27":0.06893947858112895,"28":-0.039813943715460126,"29":0.016877059617610667,"30":0.07445464250437354,"31":0.00208680952688272,"32":0.05339883829393059,"33":0.0719319492254473,"34":-0.052499027190746735,"35":-0.043879336722756554,"36":-0.03214381450313655,"37":-0.040418987635666516,"38":-0.06255800170234796,"39":-0.1067314849509323,"40":0.03983821199751155,"41":-0.03112756640905921,"42":0.06307324091666716,"43":0.057841561046775354,"44":0.0685079892935933,"45":-0.0921275966262785,"46":0.024853165117415574,"47":0.10618640536044512,"48":0.09108264137149731,"49":0.04617396782134086,"50":-0.1082560129534312,"51":-0.024359815736928275,"52":-0.11010221625860028,"53":-0.14982665476832757,"54":0.048932169752061855,"55":-0.08979538930210526,"56":-0.02120835670849077,"57":0.010731657593814618,"58":0.012177502936267043,"59":-0.038537907866289946,"60":-0.12312726021143164,"61":-0.008214914630700447,"62":-0.022616437880391593,"63":0.057065655882319426,"64":0.059453364178091495,"65":-0.05968576977341159,"66":-0.006571972798864896,"67":-0.09965609813045405,"68":-0.05371243824168286,"69":-0.0379035735843621,"70":-0.030386963886064745,"71":-0.08278097156431381,"72":0.025540311669622007,"73":-0.12296208423865532,"74":0.10621233648852216,"75":0.0015510959784330505,"76":0.009741723061251938,"77":0.08092788966893531,"78":0.18098225289700595,"79":0.17470625671867837,"80":0.14470444484341125,"81":0.06565683464089543,"82":-0.09355937706957479,"83":0.05092278102934035,"84":-0.052669642068120734,"85":-0.15311869424049546,"86":0.10108146911861943,"87":0.015166828135382787,"88":-0.058902182089441396,"89":-0.034156416727152805,"90":-0.0820292464425967,"91":0.09109742558124861,"92":-0.035022258827892144,"93":0.03461731446274205,"94":0.075575182508955,"95":0.06799681452559189,"96":0.01817989202775148,"97":0.07914780109816533,"98":0.004555550613354128,"99":0.03426360294759215,"100":0.0015346862523091124,"101":-0.032133149224925286,"102":0.016269680023214435,"103":-0.021363663385602107,"104":-0.07804358912415287,"105":-0.06915525503253456,"106":-0.03257466216079568,"107":0.06296614517111052,"108":-0.08060128304524893,"109":0.09338885178794482,"110":0.034665300285187675,"111":0.04358934728211983,"112":0.08224254920674227,"113":-0.08442902321718283,"114":-0.07187792120009848,"115":-0.035411989002847595,"116":-0.04928698952595085,"117":-0.2076980058377434,"118":-0.005475051177141008,"119":0.005988479626212063,"120":-0.03387068309615235,"121":-0.07452094389898184,"122":-0.031555027198011766,"123":0.041092492938901895,"124":0.04545625209269042,"125":-0.05952775250066273,"126":-0.013170843553973468,"127":0.19321737838550285,"128":0.003601619573050979,"129":-0.0650509941174787,"130":-0.11876709467228458,"131":0.011460327695095276,"132":-0.08913321562807565,"133":-0.06259333076867059,"134":-0.027784517429192863,"135":-0.015445926103807107,"136":-0.048766601577020764,"137":-0.024738030326138097,"138":-0.05036652173376512,"139":0.07064679781977569,